19
3.9466280937194824 -1.9466282129287720 2.0518314838409424 -0.0518316030502319 2.8947966098785400 -0.0518316030502319 2.8947966098785400 -1.9466282129287720 -0.8947966098785400 2.0518317222595215 2.0518317222595215 1.0000000000000000 1.0000000000000000 -1.9466282129287720 2.0518314838409424 -0.0518315955996513 3.9466280937194824 1.0000000000000000 -0.0518316030502319 1.0000000000000000 1.0000000000000000 3.9466280937194824 3.9466283321380615 3.9466280937194824 1.0000000000000000 1.0000000000000000 3.9466280937194824 2.8947966098785400 1.0000000000000000 -0.0518316030502319 3.9466283321380615 4.9984598159790039 1.0000000000000000 2.0518314838409424 -0.0518316030502319 -0.0518316030502319 3.9466283321380615 3.9466283321380615 3.9466283321380615 -1.9466282129287720 -0.0518316030502319 1.0000000000000000 3.9466283321380615 2.0518317222595215 -0.0518315955996513 1.0000000000000000 2.0518317222595215 -0.0518315955996513 1.3294162750244141 1.3293052911758423 -0.8947966098785400 -2.9984598159790039 -1.9466282129287720 -0.0518315955996513 -0.0518316030502319 2.0518317222595215 -1.6172521114349365 -1.9466282129287720 -1.9466282129287720 1.0000000000000000 2.0518317222595215 -0.0518316030502319 1.0000000000000000 -1.9466282129287720 -2.9984598159790039 2.0518314838409424 2.0518314838409424 3.9466280937194824 2.8947966098785400 3.9466283321380615 3.9466280937194824 -0.8947966098785400 4.9984598159790039 1.0000000000000000 -0.0518316030502319 3.9466280937194824 3.9466283321380615 -0.0518316030502319 -0.0518316030502319 -1.9466282129287720 3.9466280937194824 -0.0518316030502319 2.8947966098785400 1.0000000000000000 -0.0518316030502319 2.0518314838409424 4.9984598159790039 4.9984598159790039 1.0000000000000000 1.0000000000000000 2.8947966098785400 1.0000000000000000 -0.0518316030502319 -0.0518316030502319 4.9984598159790039 1.0000000000000000 -0.0518315955996513 4.9984598159790039 4.9984598159790039 2.0518314838409424 2.0518314838409424 2.8947966098785400 2.0518317222595215 1.0000000000000000 1.0000000000000000 1.0000000000000000 1.0000000000000000 2.0518317222595215 -0.0518315955996513 1.0000000000000000 -1.9466282129287720 0.2775418758392334 -1.6172122955322266 -2.9984598159790039 1.0000000000000000 2.0518317222595215 -2.9984598159790039 2.0518314838409424 1.0000000000000000 1.3293983936309814 -2.9984598159790039 4.9984598159790039 1.0000000000000000 1.0000000000000000 -0.0518316030502319 2.8947966098785400 3.9466280937194824 -1.9466282129287720
-0.0518316030502319 -1.9466282129287720 4.9984598159790039 2.8947966098785400 3.9466280937194824 -0.0518316030502319 3.9466283321380615 -0.0518315955996513 1.0000000000000000 -0.7249114513397217 -1.9466282129287720 3.9466283321380615 1.0000000000000000 1.0000000000000000 1.0000000000000000 -0.0518315955996513 3.9466280937194824 3.9466283321380615 2.8947966098785400 4.9984598159790039 3.9466283321380615 4.9984598159790039 3.9466280937194824 2.8947966098785400 4.9984598159790039 1.0000000000000000 4.9984598159790039 1.0000000000000000 4.9984598159790039 -0.0518316030502319 2.8947966098785400 3.9466280937194824 2.0518317222595215 3.9466283321380615 3.9466280937194824 3.9466283321380615 -0.0518316030502319 3.9466280937194824 4.9984598159790039 -2.9984598159790039 2.8947966098785400 2.0518317222595215 -0.0518316030502319 2.8947966098785400 -0.8947966098785400 -2.9984598159790039 -0.8947966098785400 1.0000000000000000 1.0000000000000000 -1.9466282129287720 1.0000000000000000 -1.9466282129287720 -1.9466282129287720 -0.8947966098785400 1.0000000000000000 -0.0518315955996513 -1.9466282129287720 -2.9984598159790039 -0.0518315955996513 2.8947966098785400 2.0518317222595215 1.0000000000000000 3.9466283321380615 -0.0518315955996513 -2.9984598159790039 3.9466280937194824 4.9984598159790039 2.8947966098785400 3.9466280937194824 2.0518314838409424 1.0000000000000000 2.0518317222595215 1.0000000000000000 3.9466283321380615 2.8947966098785400 2.0518314838409424 3.9466283321380615 2.8947966098785400 4.9984598159790039 -0.8947966098785400 1.0000000000000000 4.9984598159790039 3.9466280937194824 4.9984598159790039 4.9984598159790039 -0.0518316030502319 -0.0518316030502319 2.0518314838409424 2.8947966098785400 2.0518314838409424 -0.0518316030502319 -0.0518316030502319 -0.0518316030502319 4.9984598159790039 1.0000000000000000 1.0000000000000000 -0.0518315955996513 2.0518314838409424 3.9466283321380615 1.0000000000000000 3.9466280937194824 2.0518314838409424 1.0000000000000000 2.0518317222595215 -2.9984598159790039 2.0518314838409424 -0.0518316030502319 -0.0518315955996513 -0.8947966098785400 3.9466280937194824 -0.0518315955996513 -0.0518315955996513 -0.0518315955996513 -1.9466282129287720 2.0518317222595215 1.0000000000000000 -1.9466282129287720 3.9466280937194824 -1.9466282129287720 -1.9466282129287720 1.0000000000000000 -0.0518316030502319 -0.0518316030502319 1.0000000000000000 3.9466280937194824 2.8947966098785400 3.9466280937194824 1.0000000000000000
2.8947966098785400 1.0000000000000000 2.8947966098785400 2.0518314838409424 2.0518314838409424 2.0518314838409424 4.9984598159790039 1.0000000000000000 -0.8947966098785400 -1.9466282129287720 1.0000000000000000 4.9984598159790039 1.0000000000000000 -1.9466282129287720 1.0000000000000000 1.0000000000000000 -1.9466282129287720 2.8947966098785400 -0.0518316030502319 3.9466280937194824 2.8947966098785400 3.9466280937194824 2.8947966098785400 2.0518314838409424 1.0000000000000000 3.9466283321380615 2.8947966098785400 -0.8947966098785400 3.9466283321380615 3.9466283321380615 3.9466283321380615 1.0000000000000000 2.0518317222595215 3.9466283321380615 4.9984598159790039 3.9466283321380615 1.0000000000000000 2.0518314838409424 4.9984598159790039 -0.0518315955996513 3.9466283321380615 -2.9800310134887695 3.9466283321380615 1.0000000000000000 1.0000000000000000 2.8947966098785400 3.9466280937194824 1.0000000000000000 -1.9466282129287720 2.0518317222595215 2.0518314838409424 -1.9466282129287720 1.0000000000000000 -0.0518315955996513 -0.0518316030502319 -0.0518315955996513 -1.9466282129287720 2.0518317222595215 3.9466280937194824 1.0000000000000000 1.0000000000000000 3.9466283321380615 -0.0518316030502319 -0.8947966098785400 -2.9984598159790039 3.9466280937194824 2.0518314838409424 1.0000000000000000 3.9466280937194824 2.0518314838409424 1.0000000000000000 -1.9466282129287720 -1.9466282129287720 1.0000000000000000 1.0000000000000000 4.9984598159790039 2.0518314838409424 1.0000000000000000 1.0000000000000000 -1.9466282129287720 -0.0518316030502319 1.0000000000000000 3.9466280937194824 2.8947966098785400 2.0518314838409424 4.9984598159790039 2.8947966098785400 4.9984598159790039 1.0000000000000000 2.0518314838409424 3.9466283321380615 1.0000000000000000 4.9984598159790039 1.0000000000000000 1.0000000000000000 4.9984598159790039 -2.9984598159790039 1.0000000000000000 1.0000000000000000 4.9984598159790039 2.8947966098785400 -0.0518315955996513 1.0000000000000000 -0.8947966098785400 1.0000000000000000 4.9984598159790039 1.0000000000000000 4.8890061378479004 1.0000000000000000 3.9466280937194824 -0.0518315955996513 -1.9466282129287720 -1.9466282129287720 -0.8947966098785400 1.0000000000000000 -0.8947966098785400 -2.9984598159790039 -0.0518316030502319 -0.0518316030502319 1.0000000000000000 -2.9984598159790039 -0.0518316030502319 2.8947966098785400 2.8947966098785400 2.8947966098785400 1.0000000000000000 -0.0518316030502319 2.8947966098785400
3.9466283321380615 -0.0518315955996513 3.9466280937194824 1.0000000000000000 4.9984598159790039 2.8947966098785400 2.0518314838409424 -0.0518315955996513 1.0000000000000000 -1.9466282129287720 -0.8947966098785400 2.0518314838409424 3.9466283321380615 2.0518317222595215 1.0000000000000000 1.0000000000000000 -1.9466282129287720 1.0000000000000000 2.8947966098785400 3.9466280937194824 2.8947966098785400 1.0000000000000000 3.9466280937194824 2.0518314838409424 -0.0518315955996513 4.9984598159790039 1.0000000000000000 2.0518317222595215 3.9466280937194824 2.8947966098785400 2.5314710140228271 1.0000000000000000 -1.9466282129287720 -0.0518316030502319 1.0000000000000000 4.9984598159790039 3.9466283321380615 3.9466283321380615 3.9466280937194824 -0.8947966098785400 1.0000000000000000 2.8947966098785400 2.8947966098785400 1.0000000000000000 -1.9466282129287720 -0.0518316030502319 1.0000000000000000 2.0518317222595215 -0.8947966098785400 1.0000000000000000 1.0000000000000000 -2.9984598159790039 3.9466283321380615 1.0000000000000000 2.8947966098785400 -1.9466282129287720 -2.9984598159790039 -0.8947966098785400 4.9984598159790039 4.9984598159790039 -0.8947966098785400 -0.0518316030502319 2.0518314838409424 2.0518317222595215 -0.0518315955996513 1.0000000000000000 3.9466283321380615 2.8947966098785400 2.0518314838409424 1.0000000000000000 -0.0518316030502319 -1.9466282129287720 -1.9466282129287720 -0.0518316030502319 3.9466283321380615 3.9466283321380615 3.9466283321380615 -0.0518316030502319 3.9466283321380615 -0.8947966098785400 1.0000000000000000 1.0000000000000000 3.9466283321380615 -0.0518316030502319 1.0000000000000000 1.0000000000000000 3.9466283321380615 3.9466283321380615 -0.8947966098785400 -0.0518316030502319 1.0000000000000000 -0.0518316030502319 1.0000000000000000 -2.9984598159790039 -0.0518316030502319 1.0000000000000000 1.0000000000000000 2.8947966098785400 2.0518314838409424 3.9466283321380615 2.8947966098785400 2.0518317222595215 2.0518317222595215 -0.0518315955996513 -0.8947966098785400 3.9466280937194824 1.0000000000000000 3.9466283321380615 3.9466283321380615 2.8947966098785400 -1.9466282129287720 -1.9466282129287720 1.0000000000000000 2.0518317222595215 1.0000000000000000 2.0518317222595215 -0.0518315955996513 2.0518314838409424 3.9466283321380615 1.0000000000000000 -1.9466282129287720 4.9984598159790039 -0.0518316030502319 3.9466280937194824 2.8947966098785400 1.0000000000000000 2.8947966098785400 1.0000000000000000
3.9466283321380615 2.8947966098785400 3.9466280937194824 4.9984598159790039 4.9984598159790039 -0.0518316030502319 3.9466280937194824 -1.9466282129287720 1.0000000000000000 1.0000000000000000 2.0518317222595215 1.0000000000000000 1.0000000000000000 1.0000000000000000 -2.9984598159790039 1.0000000000000000 2.0518317222595215 -0.8947966098785400 1.0000000000000000 2.8947966098785400 3.9466283321380615 2.8947966098785400 1.0000000000000000 -0.0518316030502319 -0.8947966098785400 4.9984598159790039 3.9466280937194824 -1.9466282129287720 1.0000000000000000 1.0000000000000000 -1.9466282129287720 4.9984598159790039 -0.8947966098785400 1.0000000000000000 1.0000000000000000 1.0000000000000000 -0.0518316030502319 2.8947966098785400 3.9466283321380615 -2.9984598159790039 3.9466280937194824 2.8947966098785400 3.9466280937194824 3.9466280937194824 1.0000000000000000 3.9466283321380615 -0.0518315955996513 -1.9466282129287720 1.0000000000000000 1.0000000000000000 1.0000000000000000 -1.9466282129287720 1.0000000000000000 -1.9466282129287720 2.8947966098785400 1.0000000000000000 -1.9466282129287720 -2.9984598159790039 2.8947966098785400 1.0000000000000000 2.0518317222595215 3.9466283321380615 2.0518314838409424 1.0000000000000000 -0.0518315955996513 1.0000000000000000 -0.0518316030502319 1.0000000000000000 2.0518314838409424 4.9984598159790039 2.8947966098785400 -0.8947966098785400 1.0000000000000000 2.8947966098785400 3.9466283321380615 2.0518314838409424 4.9984598159790039 4.9984598159790039 -0.0518316030502319 -2.9984598159790039 1.0000000000000000 1.6207062005996704 1.0000000000000000 1.0000000000000000 -0.0518316030502319 -1.9466282129287720 3.9466283321380615 2.0518314838409424 1.0000000000000000 -0.0518316030502319 2.0518314838409424 2.0518314838409424 4.9984598159790039 -0.8947966098785400 2.0518314838409424 2.8947966098785400 -1.9466282129287720 1.0000000000000000 2.0518314838409424 3.9466280937194824 1.0000000000000000 1.0000000000000000 -0.8947966098785400 -1.9466282129287720 -1.9466282129287720 3.9466280937194824 1.0000000000000000 -1.9466282129287720 1.0000000000000000 -0.0518316030502319 2.0518317222595215 -0.8947966098785400 -1.9466282129287720 -1.9466282129287720 2.8947966098785400 -2.9984598159790039 -2.9984598159790039 3.9466280937194824 -0.8947966098785400 -0.8947966098785400 -1.9466282129287720 1.0000000000000000 -0.0518316030502319 2.8947966098785400 2.0518314838409424 1.0000000000000000 2.0518314838409424 2.0518314838409424
-1.9466282129287720 -0.8947966098785400 2.0518314838409424 2.0518314838409424 2.8947966098785400 1.0000000000000000 2.0518314838409424 -1.9466282129287720 -0.0518315955996513 -1.9466282129287720 2.0518317222595215 3.9466283321380615 3.9466283321380615 2.0518317222595215 -1.9466282129287720 -1.9466282129287720 4.9984598159790039 -0.8947966098785400 4.9984598159790039 2.0518314838409424 -0.8947966098785400 3.9466280937194824 1.0000000000000000 3.9466280937194824 -0.8947966098785400 1.0000000000000000 3.9466280937194824 -1.9466282129287720 4.9984598159790039 4.9984598159790039 -0.8947966098785400 -2.9984598159790039 -1.9466282129287720 1.0000000000000000 2.0518314838409424 2.0518314838409424 4.9984598159790039 2.8947966098785400 4.9984598159790039 1.0000000000000000 3.9466280937194824 2.0518317222595215 3.9466280937194824 1.0000000000000000 -1.9466282129287720 -1.9466282129287720 -1.9466282129287720 -1.9466282129287720 -0.0518315955996513 -0.8947966098785400 -1.9466282129287720 1.0000000000000000 1.0000000000000000 -1.9466282129287720 -2.9984598159790039 3.9466280937194824 -1.9466282129287720 -0.0518315955996513 1.0000000000000000 2.8947966098785400 1.0000000000000000 3.9466283321380615 -0.0518316030502319 -1.5642210245132446 -0.8947966098785400 -0.0518316030502319 1.0000000000000000 1.0000000000000000 2.8947966098785400 1.0000000000000000 3.9466283321380615 -2.9984598159790039 2.0518317222595215 1.0000000000000000 1.0000000000000000 -0.0518316030502319 4.9984598159790039 4.9984598159790039 1.0000000000000000 -0.8947966098785400 3.9466283321380615 -2.9984598159790039 4.9984598159790039 3.9466283321380615 1.0000000000000000 1.0000000000000000 2.8947966098785400 2.8947966098785400 -2.9984598159790039 4.9984598159790039 1.0000000000000000 1.0000000000000000 2.8947966098785400 1.0000000000000000 4.9984598159790039 3.9466280937194824 -2.9984598159790039 1.0000000000000000 3.9466283321380615 4.9984598159790039 3.9466280937194824 -2.9984598159790039 -1.9466282129287720 -1.9466282129287720 -1.9466282129287720 2.0518317222595215 2.0518314838409424 -1.9466282129287720 -0.0518316030502319 4.9984598159790039 1.0000000000000000 -1.9466282129287720 1.0000000000000000 -0.8947966098785400 3.9466280937194824 -0.8947966098785400 -0.8947966098785400 1.0000000000000000 -0.8947966098785400 -0.0518315955996513 -0.0518315955996513 -0.0518316030502319 3.9466280937194824 3.9466280937194824 4.9984598159790039 4.9984598159790039 3.9466283321380615 4.9984598159790039
-1.9466282129287720 2.8947966098785400 4.9984598159790039 1.0000000000000000 3.9466280937194824 2.0518314838409424 4.9984598159790039 1.0000000000000000 -0.0518315955996513 -1.9466282129287720 1.0000000000000000 1.0000000000000000 3.9466280937194824 -0.0518315955996513 1.0000000000000000 1.0000000000000000 1.0000000000000000 1.0000000000000000 2.0518314838409424 2.0518314838409424 1.0000000000000000 3.9466280937194824 -0.0518316030502319 -0.0518316030502319 1.0000000000000000 2.8947966098785400 -1.9466282129287720 1.0000000000000000 1.0000000000000000 -0.0518316030502319 4.9984598159790039 -1.9466282129287720 -0.8947966098785400 2.0518317222595215 3.9466280937194824 -0.0518315955996513 -1.9466282129287720 1.0000000000000000 4.9984598159790039 1.0000000000000000 1.0000000000000000 1.0000000000000000 2.0518314838409424 1.0000000000000000 1.0000000000000000 4.9984598159790039 -0.0518315955996513 3.9466283321380615 1.0000000000000000 -1.9466282129287720 1.0000000000000000 1.0000000000000000 1.0000000000000000 -0.0518315955996513 -2.9984598159790039 1.0000000000000000 2.8947966098785400 -2.9984598159790039 2.0518314838409424 1.0000000000000000 -1.9466282129287720 3.9466283321380615 -0.0518316030502319 1.0000000000000000 -0.0518315955996513 1.0000000000000000 2.0518314838409424 1.0000000000000000 2.8947966098785400 3.9466280937194824 4.9984598159790039 -2.9984598159790039 -1.9466282129287720 -2.9984598159790039 1.0000000000000000 -0.0518316030502319 4.9984598159790039 1.0000000000000000 -0.0518316030502319 -0.0518315955996513 1.0000000000000000 1.0000000000000000 2.8947966098785400 2.0518314838409424 4.9984598159790039 -0.0518316030502319 2.8947966098785400 -0.0518316030502319 2.0518317222595215 3.9466283321380615 -0.0518316030502319 3.9466283321380615 3.9466283321380615 1.0000000000000000 2.0518314838409424 2.0518314838409424 -1.9466282129287720 -0.0518316030502319 2.8947966098785400 2.0518314838409424 4.9984598159790039 -1.9466282129287720 2.0518317222595215 -2.9984598159790039 -2.9984598159790039 -0.8947966098785400 2.0518317222595215 -2.9984598159790039 -0.0518315955996513 3.9466280937194824 -2.9984598159790039 1.0000000000000000 3.9466280937194824 2.6293468475341797 1.0000000000000000 1.0000000000000000 2.0518317222595215 3.9466280937194824 -2.9984598159790039 -0.8947966098785400 3.9466280937194824 -0.0518316030502319 -0.0518316030502319 2.0518314838409424 -0.0518316030502319 2.8947966098785400 2.0518314838409424 1.0000000000000000
-1.9466282129287720 1.0000000000000000 4.9984598159790039 3.9466283321380615 -0.0518316030502319 -0.0518315955996513 3.9466280937194824 -1.9466282129287720 -0.8947966098785400 1.0000000000000000 -0.0518315955996513 1.0000000000000000 3.9466283321380615 -0.8947966098785400 -1.9466282129287720 2.0518317222595215 1.0000000000000000 -2.9984598159790039 1.0000000000000000 3.9466283321380615 -0.8947966098785400 2.0518314838409424 -0.0518316030502319 2.0518314838409424 2.0518317222595215 4.9984598159790039 1.0000000000000000 4.9984598159790039 2.8947966098785400 1.0000000000000000 4.9984598159790039 1.0000000000000000 -2.9984598159790039 -0.8947966098785400 3.9466280937194824 -1.9466282129287720 2.0518317222595215 3.9466283321380615 2.0518314838409424 -1.9466282129287720 3.9466280937194824 1.0000000000000000 3.9466280937194824 3.9466280937194824 1.0000000000000000 2.8947966098785400 2.0518317222595215 3.9466280937194824 2.0518317222595215 2.0518314838409424 1.0000000000000000 2.0518314838409424 3.9466283321380615 -0.0518315955996513 1.0000000000000000 1.0000000000000000 3.9466280937194824 -2.9984598159790039 -1.9466282129287720 1.0000000000000000 -0.0518315955996513 2.8947966098785400 1.0000000000000000 1.0000000000000000 -0.8947966098785400 -0.8947966098785400 2.0518314838409424 2.0518314838409424 1.0000000000000000 1.0000000000000000 -0.0518316030502319 1.0000000000000000 -0.0518315955996513 3.9466280937194824 1.6830730438232422 1.0000000000000000 2.8947966098785400 3.9466283321380615 3.9466283321380615 1.0000000000000000 1.0000000000000000 -0.8947966098785400 3.9466280937194824 2.0518314838409424 4.9984598159790039 1.0000000000000000 2.0518314838409424 3.9466283321380615 -0.0518315955996513 -0.0518315955996513 4.9984598159790039 4.9984598159790039 2.0518314838409424 1.0000000000000000 1.0000000000000000 2.0518317222595215 -0.8947966098785400 3.9466283321380615 3.9466280937194824 3.9466283321380615 1.0000000000000000 -0.8947966098785400 -1.9466282129287720 -1.9466282129287720 1.0000000000000000 1.0000000000000000 1.0000000000000000 1.0000000000000000 1.0000000000000000 1.0000000000000000 -2.9984598159790039 2.8947966098785400 1.0000000000000000 3.9466283321380615 1.0000000000000000 -1.9466282129287720 -2.9984598159790039 1.0000000000000000 -2.9984598159790039 1.0000000000000000 2.8947966098785400 2.0518314838409424 4.9984598159790039 2.0518314838409424 2.8947966098785400 1.0000000000000000 1.0000000000000000 2.0518314838409424
-1.9466282129287720 -0.0518315955996513 1.0000000000000000 1.0000000000000000 2.0518314838409424 3.9466283321380615 4.9984598159790039 2.8947966098785400 -0.0518315955996513 -1.9466282129287720 -0.0518315955996513 1.0000000000000000 4.9984598159790039 1.0000000000000000 -0.0518315955996513 -0.0518315955996513 3.9466280937194824 1.0000000000000000 3.9466283321380615 1.0000000000000000 -1.9466282129287720 1.0000000000000000 2.0518314838409424 -0.0518316030502319 -2.9984598159790039 3.9466280937194824 1.0000000000000000 1.0000000000000000 2.0518314838409424 1.0000000000000000 1.0000000000000000 2.0518317222595215 -2.9984598159790039 2.0518317222595215 0.5602259635925293 -0.0518315955996513 -1.9466282129287720 1.0000000000000000 1.0000000000000000 -0.8947966098785400 1.0000000000000000 -2.9984598159790039 2.8947966098785400 1.0000000000000000 1.0000000000000000 2.0518314838409424 2.0518314838409424 -1.9466282129287720 1.0000000000000000 1.0000000000000000 -1.9466282129287720 4.9984598159790039 1.0000000000000000 2.0518317222595215 -0.0518315955996513 4.9984598159790039 3.9466283321380615 -1.9466282129287720 -0.8947966098785400 4.9984598159790039 -2.9984598159790039 1.0000000000000000 3.9466283321380615 -2.9984598159790039 4.9993772506713867 1.0000000000000000 1.0000000000000000 3.9466283321380615 3.9466283321380615 3.9466280937194824 3.9466280937194824 -2.9984598159790039 4.9984598159790039 3.9466280937194824 1.0000000000000000 4.9984598159790039 3.9466283321380615 2.8947966098785400 1.0000000000000000 -0.8947966098785400 3.9466280937194824 -0.8947966098785400 1.0000000000000000 1.0000000000000000 -0.0518316030502319 2.0518314838409424 3.9466283321380615 1.0000000000000000 -1.9466282129287720 2.0518317222595215 1.0000000000000000 3.9466280937194824 0.8608868122100830 -2.9984598159790039 -2.9984598159790039 -1.9466282129287720 -0.8947966098785400 3.9466280937194824 1.0000000000000000 1.0000000000000000 -0.0518316030502319 -0.8947966098785400 -2.9984598159790039 -0.0518316030502319 2.0518317222595215 2.0518317222595215 2.0518314838409424 1.0000000000000000 -2.9984598159790039 2.0518317222595215 -0.0518315955996513 1.0000000000000000 2.8947966098785400 3.9466283321380615 1.0000000000000000 1.0000000000000000 1.0000000000000000 3.9466283321380615 -1.9466282129287720 3.9466283321380615 1.0000000000000000 4.9984598159790039 2.0518314838409424 -0.0518316030502319 3.9466280937194824 3.9466280937194824 1.0000000000000000 3.9466283321380615
-1.9466282129287720 1.9679919481277466 4.9984598159790039 3.9466283321380615 3.9466280937194824 -1.9466282129287720 -0.0518315955996513 1.0000000000000000 -2.9984598159790039 -2.9984598159790039 2.0518317222595215 -0.0518316030502319 2.8947966098785400 1.0000000000000000 -1.9466282129287720 -0.8947966098785400 3.9466280937194824 -0.8947966098785400 2.0518314838409424 1.0000000000000000 1.0000000000000000 1.0000000000000000 2.8947966098785400 3.9466283321380615 -0.8947966098785400 3.9466280937194824 -1.9466282129287720 -0.8947966098785400 1.0000000000000000 2.0518314838409424 2.8947966098785400 1.0000000000000000 -0.0518315955996513 1.0000000000000000 -0.0518315955996513 2.0518317222595215 2.0518317222595215 4.9984598159790039 1.0000000000000000 -2.9984598159790039 2.8947966098785400 -1.9466282129287720 1.0000000000000000 4.9984598159790039 4.9984598159790039 3.9466280937194824 1.0000000000000000 1.0000000000000000 -2.9984598159790039 3.9466280937194824 -0.0518315955996513 -0.0518316030502319 1.0000000000000000 1.0000000000000000 -1.9466282129287720 3.9466280937194824 2.8947966098785400 -1.9466282129287720 -1.9466282129287720 1.0000000000000000 1.0000000000000000 3.9466283321380615 2.0518314838409424 1.0000000000000000 1.0000000000000000 2.0518317222595215 -0.0518316030502319 4.9984598159790039 4.9984598159790039 3.9466283321380615 4.9984598159790039 -1.9466282129287720 1.0000000000000000 2.8947966098785400 -1.9466282129287720 2.0518314838409424 2.8947966098785400 3.9466280937194824 3.9466280937194824 -0.0518315955996513 1.0000000000000000 -0.0518315955996513 -0.0518316030502319 -0.0518316030502319 2.0518314838409424 3.9466280937194824 4.9984598159790039 -0.0518316030502319 -0.0518315955996513 1.0000000000000000 1.0000000000000000 3.9466280937194824 1.0000000000000000 -1.9466282129287720 -0.0518315955996513 -0.0518315955996513 3.9466280937194824 2.8947966098785400 4.9984598159790039 -0.0518316030502319 -0.0518315955996513 -0.0518316030502319 -0.8947966098785400 2.0518314838409424 -0.8947966098785400 1.0000000000000000 3.9466283321380615 -1.9466282129287720 -0.0518315955996513 2.0518314838409424 1.0000000000000000 -0.0518316030502319 -0.0518316030502319 1.0000000000000000 2.0518317222595215 -1.9466282129287720 1.0000000000000000 3.9466280937194824 -2.9984598159790039 4.9984598159790039 1.0000000000000000 -0.0518315955996513 1.0000000000000000 1.0000000000000000 1.0000000000000000 0.4931148290634155 4.9984598159790039 1.0000000000000000
0.4739612340927124 2.0518314838409424 -0.8947966098785400 -0.0518316030502319 1.0000000000000000 3.9466280937194824 1.0000000000000000 1.0000000000000000 2.6689167022705078 3.9466283321380615 -0.0518315955996513 2.8947966098785400 2.0518314838409424 1.0000000000000000 -0.8947966098785400 1.0000000000000000 3.9466280937194824 -2.9984598159790039 2.0518314838409424 3.9466283321380615 -2.9984598159790039 -0.8947966098785400 1.0000000000000000 4.9984598159790039 1.0000000000000000 1.0000000000000000 -1.9466282129287720 2.8300530910491943 3.9466280937194824 1.0000000000000000 2.0518314838409424 -0.8947966098785400 -2.9984598159790039 1.0000000000000000 4.9984598159790039 2.0518317222595215 -2.9984598159790039 1.0000000000000000 1.0000000000000000 1.0000000000000000 3.9466280937194824 -0.8947966098785400 3.9466280937194824 4.9984598159790039 2.8947966098785400 2.0518314838409424 2.8947966098785400 -0.8947966098785400 2.0518317222595215 4.9984598159790039 1.0000000000000000 3.9466283321380615 3.9466280937194824 -1.9466282129287720 2.0518317222595215 1.0000000000000000 -0.0518316030502319 -1.9466282129287720 2.0518317222595215 1.0000000000000000 1.0000000000000000 -0.0518316030502319 4.9984598159790039 -2.9984598159790039 -0.0518316030502319 2.0518317222595215 1.0000000000000000 -0.0518316030502319 2.0518314838409424 1.0000000000000000 -0.0518316030502319 1.0000000000000000 -2.9984598159790039 2.8947966098785400 -0.0518315955996513 1.0000000000000000 1.0000000000000000 1.0000000000000000 2.0518314838409424 -1.9466282129287720 3.9466283321380615 2.0518317222595215 2.8947966098785400 2.0518314838409424 2.8947966098785400 2.8947966098785400 2.8947966098785400 2.8947966098785400 1.0000000000000000 1.0000000000000000 2.8947966098785400 3.9466283321380615 -2.9984598159790039 -1.9466282129287720 2.0518317222595215 -1.9466282129287720 -1.9466282129287720 3.9466280937194824 3.9466280937194824 2.8947966098785400 1.0000000000000000 -0.0518316030502319 -1.9466282129287720 1.0000000000000000 -0.0518316030502319 -0.8947966098785400 -2.9984598159790039 -1.9466282129287720 2.0518317222595215 1.0000000000000000 1.0000000000000000 4.9984598159790039 1.0000000000000000 1.0000000000000000 2.0518317222595215 1.0000000000000000 1.0000000000000000 2.0518314838409424 -1.9466282129287720 1.0000000000000000 3.9466280937194824 1.0000000000000000 1.0000000000000000 1.0000000000000000 3.9466283321380615 1.0000000000000000 -0.0518316030502319 4.9984598159790039
3.9294955730438232 -2.9984598159790039 1.0000000000000000 3.9466283321380615 -0.0518315955996513 -0.0518316030502319 -0.8947966098785400 2.0518314838409424 3.9466280937194824 2.0518317222595215 -1.9466282129287720 3.9466283321380615 4.9984598159790039 1.0000000000000000 1.0000000000000000 2.0518317222595215 3.9466280937194824 -0.0518315955996513 1.0000000000000000 2.0518314838409424 1.0000000000000000 -0.0518316030502319 -0.0518316030502319 3.9466280937194824 2.8947966098785400 0.6509578227996826 2.8947966098785400 1.0000000000000000 4.9984598159790039 2.0518314838409424 2.0518314838409424 4.9984598159790039 1.0000000000000000 -0.0518315955996513 2.8947966098785400 2.0518317222595215 -1.9466282129287720 4.9984598159790039 -0.0518315955996513 2.0518314838409424 4.9984598159790039 -2.9984598159790039 1.0000000000000000 1.0000000000000000 4.9984598159790039 2.0518317222595215 3.9466280937194824 3.9466280937194824 -1.9466282129287720 2.0518314838409424 1.0000000000000000 -0.0518316030502319 1.0000000000000000 -0.8947966098785400 1.0000000000000000 4.9984598159790039 3.9466280937194824 1.0000000000000000 1.0000000000000000 4.9984598159790039 1.0000000000000000 4.9984598159790039 3.9466283321380615 2.0518317222595215 1.2406288385391235 -0.8947966098785400 2.8947966098785400 2.8947966098785400 1.0000000000000000 -0.8947966098785400 3.9466280937194824 2.0518314838409424 2.0518317222595215 1.0000000000000000 2.0518317222595215 3.9466280937194824 2.8947966098785400 3.9466283321380615 1.0000000000000000 -1.9466282129287720 1.0000000000000000 1.0000000000000000 2.0518314838409424 1.0000000000000000 2.0518314838409424 -0.0518316030502319 2.0518314838409424 1.0000000000000000 -1.9466282129287720 -0.0518315955996513 4.9984598159790039 3.9466280937194824 1.0000000000000000 2.0518317222595215 -0.0518315955996513 -2.9984598159790039 -0.0518315955996513 -0.0518316030502319 2.0518314838409424 3.9466283321380615 0.7679708003997803 -0.0518316030502319 -0.0518315955996513 3.9466280937194824 -0.0518316030502319 1.0000000000000000 -0.0518315955996513 1.0000000000000000 -1.9466282129287720 1.0000000000000000 -0.0518315955996513 3.9466280937194824 3.9466283321380615 1.0000000000000000 1.0000000000000000 -0.0518315955996513 -0.8947966098785400 2.0518314838409424 -2.9984598159790039 2.8947966098785400 3.9466280937194824 3.9466283321380615 2.8947966098785400 -0.0518315955996513 1.0000000000000000 1.0000000000000000 4.9984598159790039 3.9466280937194824
2.8947966098785400 2.8947966098785400 -1.9466282129287720 3.9466283321380615 -0.8947966098785400 1.0000000000000000 -1.9466282129287720 2.0518314838409424 2.8947966098785400 -2.9984598159790039 -0.0518315955996513 1.0000000000000000 4.9984598159790039 1.0000000000000000 -0.8947966098785400 2.0518317222595215 -0.0518316030502319 -1.9466282129287720 3.9466280937194824 3.9466280937194824 -0.0518315955996513 2.0518314838409424 2.0518314838409424 1.0000000000000000 -0.0518316030502319 2.0518314838409424 3.9466283321380615 1.0000000000000000 -1.9466282129287720 1.0000000000000000 1.0000000000000000 4.9947233200073242 -1.9466282129287720 -1.9466282129287720 -0.0518316030502319 -0.8947966098785400 -1.9466282129287720 1.0000000000000000 -0.0518315955996513 2.0518314838409424 1.0000000000000000 -1.9466282129287720 3.9466283321380615 3.9466280937194824 3.9466280937194824 1.0000000000000000 4.9984598159790039 -0.0518316030502319 -0.0518315955996513 4.9984598159790039 2.0518317222595215 3.9466280937194824 4.9984598159790039 1.0000000000000000 2.0518317222595215 -0.0518316030502319 4.9984598159790039 -1.9466282129287720 -0.0518315955996513 3.9466280937194824 2.8947966098785400 2.8947966098785400 2.8947966098785400 -0.0518316030502319 0.9799013137817383 -1.9466282129287720 4.9984598159790039 4.9984598159790039 2.0518314838409424 -0.0518315955996513 2.0518314838409424 1.0000000000000000 -0.8947966098785400 1.0000000000000000 -0.8947966098785400 3.9466280937194824 2.8947966098785400 4.9984598159790039 2.8947966098785400 1.0000000000000000 -0.0518316030502319 1.0000000000000000 -0.0518316030502319 1.0000000000000000 2.0518314838409424 -0.0518316030502319 3.9466280937194824 3.9466280937194824 2.0518317222595215 1.0000000000000000 2.0518314838409424 4.9984598159790039 -2.8869626522064209 2.0518317222595215 -2.9984598159790039 1.0000000000000000 -0.8947966098785400 4.9984598159790039 1.0000000000000000 -0.0518316030502319 2.8947966098785400 2.0518314838409424 -2.9984598159790039 1.0000000000000000 3.9466280937194824 2.0518317222595215 2.0518317222595215 1.0000000000000000 -0.0518316030502319 2.0518314838409424 2.0518314838409424 3.9466283321380615 4.9984598159790039 1.0000000000000000 -0.8947966098785400 -1.9466282129287720 0.9804317951202393 2.8947966098785400 -2.9984598159790039 1.0000000000000000 2.0518314838409424 1.0000000000000000 1.0000000000000000 4.9984598159790039 4.9984598159790039 2.0518317222595215 3.9466283321380615 -0.0518316030502319
3.9466283321380615 4.9984598159790039 2.0518317222595215 4.9984598159790039 1.0000000000000000 3.9466283321380615 -2.9984598159790039 2.8947966098785400 -0.0518316030502319 -0.8947966098785400 -1.9466282129287720 -1.9466282129287720 2.0518314838409424 -1.9466282129287720 2.0518317222595215 -0.0518315955996513 2.0518314838409424 1.0000000000000000 1.0000000000000000 1.0000000000000000 1.0000000000000000 1.0000000000000000 1.0000000000000000 4.9984598159790039 2.8947966098785400 1.0000000000000000 1.0000000000000000 1.0000000000000000 2.2626202106475830 3.9466280937194824 -0.0518316030502319 1.0000000000000000 -1.9466282129287720 -1.9466282129287720 2.8947966098785400 1.0000000000000000 2.0518317222595215 4.9984598159790039 1.0000000000000000 1.0000000000000000 3.9466283321380615 -0.0518315955996513 2.0518314838409424 3.9466283321380615 -0.0518315955996513 4.9984598159790039 1.0000000000000000 -2.7794504165649414 2.0518317222595215 4.9984598159790039 -1.9466282129287720 1.0000000000000000 3.9466280937194824 2.0518317222595215 2.0518314838409424 -0.0518316030502319 3.9466283321380615 1.0000000000000000 1.0000000000000000 2.8947966098785400 3.9466283321380615 1.0000000000000000 3.9466280937194824 3.9466283321380615 -1.9466282129287720 1.0000000000000000 -0.0518316030502319 1.0000000000000000 -0.0518316030502319 1.0000000000000000 3.9466283321380615 1.0000000000000000 -1.9466282129287720 1.0000000000000000 -0.0518316030502319 2.0518314838409424 -0.0518316030502319 4.9984598159790039 1.0000000000000000 -1.9466282129287720 -2.9984598159790039 -1.9466282129287720 -1.9466282129287720 3.9466280937194824 1.0000000000000000 4.9984598159790039 -0.0518316030502319 1.0000000000000000 -1.9466282129287720 1.0000000000000000 4.9984598159790039 3.9466283321380615 1.0000000000000000 -0.0518316030502319 1.0000000000000000 -1.9466282129287720 2.0518314838409424 2.0518314838409424 1.0000000000000000 4.9984598159790039 3.9466280937194824 3.9466283321380615 -1.9466282129287720 3.9466283321380615 -0.0518316030502319 -1.9466282129287720 1.0000000000000000 -2.9984598159790039 1.0000000000000000 4.9984598159790039 3.9466283321380615 -0.0518316030502319 1.0000000000000000 -0.0518316030502319 -1.9466282129287720 -0.0518316030502319 -2.8732631206512451 3.9466283321380615 -1.9466282129287720 4.9984598159790039 3.9466283321380615 2.8947966098785400 4.9984598159790039 1.0000000000000000 3.9466283321380615 1.0000000000000000 3.9466283321380615 -0.0518316030502319
2.8947966098785400 1.0000000000000000 -0.0518315955996513 2.0518314838409424 1.0000000000000000 1.3243019580841064 -1.9466282129287720 -0.8947966098785400 2.8947966098785400 -1.9466282129287720 1.0000000000000000 -1.9466282129287720 3.9466280937194824 1.0000000000000000 -1.9466282129287720 2.0518317222595215 3.9466280937194824 -2.9984598159790039 1.0000000000000000 3.9466280937194824 1.0000000000000000 -2.9984598159790039 -0.0518316030502319 2.0518317222595215 3.9466283321380615 1.0000000000000000 3.9466283321380615 3.9466283321380615 -0.8947966098785400 2.8947966098785400 -1.9466282129287720 -1.7837216854095459 2.0518314838409424 -2.9984598159790039 -0.0518316030502319 1.0000000000000000 -1.9466282129287720 1.0000000000000000 1.0000000000000000 4.9984598159790039 1.0000000000000000 2.0518317222595215 1.0000000000000000 3.9466280937194824 -2.9984598159790039 1.0000000000000000 -1.9466282129287720 3.9466280937194824 -1.9466282129287720 4.9984598159790039 1.0000000000000000 -2.9984598159790039 2.8947966098785400 1.0000000000000000 1.0000000000000000 3.9466283321380615 4.9984598159790039 -1.9466282129287720 -0.0518315955996513 1.0000000000000000 2.8947966098785400 2.8947966098785400 -2.9984598159790039 4.9984598159790039 -2.9984598159790039 1.0000000000000000 1.0000000000000000 2.8947966098785400 3.9466280937194824 1.0000000000000000 2.0518314838409424 1.0000000000000000 2.0518317222595215 2.8947966098785400 2.8947966098785400 2.0518314838409424 -0.1744368076324463 2.0518314838409424 4.9984598159790039 1.0000000000000000 -1.9466282129287720 1.0000000000000000 -0.8947966098785400 1.0000000000000000 4.9984598159790039 4.9984598159790039 -1.9466282129287720 3.9466283321380615 3.4936513900756836 1.0000000000000000 1.0000000000000000 1.0000000000000000 2.8947966098785400 2.0518314838409424 -0.8947966098785400 1.0000000000000000 -0.0518315955996513 3.9466280937194824 1.0000000000000000 2.0518314838409424 1.0531148910522461 -0.0518316030502319 1.0000000000000000 3.9466280937194824 3.9466283321380615 -1.9466282129287720 2.0518317222595215 1.0000000000000000 -0.0518316030502319 2.0518314838409424 1.0000000000000000 1.0000000000000000 -0.0518316030502319 -0.0518316030502319 1.0000000000000000 -0.0518316030502319 1.0000000000000000 3.9466283321380615 -0.0518315955996513 -0.0518316030502319 4.9984598159790039 3.9466283321380615 2.8947966098785400 2.0518314838409424 2.0518314838409424 -1.6775550842285156 2.0518314838409424 3.9466283321380615
1.0000000000000000 1.0000000000000000 -1.9466282129287720 1.0000000000000000 -1.9466282129287720 2.8947966098785400 -0.8947966098785400 1.0000000000000000 2.0518314838409424 -0.8947966098785400 -2.9984598159790039 -1.9466282129287720 2.0518314838409424 -0.8947966098785400 -1.9466282129287720 -2.9984598159790039 1.0000000000000000 1.0000000000000000 3.9466280937194824 3.9466283321380615 3.4180788993835449 -2.9984598159790039 4.7648882865905762 -1.9466282129287720 1.0000000000000000 1.0000000000000000 3.9466283321380615 4.9984598159790039 2.8947966098785400 -1.8472669124603271 1.0000000000000000 2.0518314838409424 -0.1680676937103271 1.0000000000000000 2.0518314838409424 -1.9466282129287720 -1.9466282129287720 1.0000000000000000 1.0000000000000000 2.0518314838409424 2.0518314838409424 1.0000000000000000 1.0000000000000000 2.0518317222595215 -1.9466282129287720 2.0518314838409424 -1.9466282129287720 -1.9466282129287720 3.9466280937194824 -0.0518316030502319 -0.0518315955996513 3.9466280937194824 1.0000000000000000 -0.0518315955996513 3.9466280937194824 4.9984598159790039 2.0518314838409424 1.0000000000000000 1.0000000000000000 2.0518314838409424 1.0000000000000000 2.0518317222595215 1.0000000000000000 4.9984598159790039 0.3523951768875122 -0.0518315955996513 1.0000000000000000 -0.0518316030502319 1.0000000000000000 -0.0518315955996513 2.8947966098785400 -0.0518316030502319 -1.9466282129287720 1.0000000000000000 1.0000000000000000 2.8947966098785400 1.0000000000000000 3.9466283321380615 3.9466283321380615 1.0000000000000000 -1.9466282129287720 -1.9466282129287720 1.0000000000000000 1.0000000000000000 1.0000000000000000 1.0000000000000000 2.8947966098785400 -0.0518316030502319 3.9466283321380615 -0.0518315955996513 3.9466283321380615 2.8947966098785400 4.9984598159790039 1.0000000000000000 1.0000000000000000 1.0000000000000000 2.0518314838409424 1.0000000000000000 2.0518314838409424 2.8947966098785400 2.0518317222595215 -0.0518316030502319 -2.9826998710632324 1.0000000000000000 4.9984598159790039 1.0000000000000000 -1.9466282129287720 -1.9466282129287720 1.0000000000000000 1.0000000000000000 1.0000000000000000 2.8947966098785400 3.9466283321380615 1.0000000000000000 1.0000000000000000 4.9984598159790039 1.0000000000000000 4.9984598159790039 -0.8947966098785400 1.0000000000000000 -1.9466282129287720 -0.8947966098785400 3.9466280937194824 4.9984598159790039 1.0000000000000000 0.7543102502822876 1.0000000000000000 -0.0518316030502319
2.0518314838409424 4.9984598159790039 2.0518317222595215 3.9466283321380615 -2.9984598159790039 3.9466280937194824 -1.9466282129287720 -0.8947966098785400 3.9466283321380615 3.9466280937194824 1.0000000000000000 -1.9466282129287720 -0.0518316030502319 -0.0518315955996513 1.0000000000000000 -1.9466282129287720 2.8947966098785400 -1.9466282129287720 3.9466280937194824 1.0000000000000000 -0.8947966098785400 -1.9460401535034180 1.0000000000000000 3.4384768009185791 2.8947966098785400 1.0000000000000000 -0.0518316030502319 -2.9984598159790039 -1.9466282129287720 2.8947966098785400 0.2351701855659485 -0.0518316030502319 1.0000000000000000 2.0518317222595215 1.0000000000000000 1.0000000000000000 -1.9466282129287720 -1.1792652606964111 -2.9984598159790039 3.6279823780059814 -0.0518316030502319 -1.8661460876464844 4.9984598159790039 4.9984598159790039 -0.0518316030502319 3.9466280937194824 2.0518317222595215 1.0000000000000000 3.9179196357727051 4.9984598159790039 1.0000000000000000 4.9984598159790039 1.0000000000000000 1.0000000000000000 -0.0518316030502319 1.0000000000000000 -0.4325947761535645 3.9466280937194824 -0.2981356382369995 1.0000000000000000 -0.0518315955996513 2.0518314838409424 -2.9040732383728027 3.7212474346160889 4.9984598159790039 3.9466283321380615 -2.9984598159790039 1.0000000000000000 4.9984598159790039 -1.9466282129287720 1.0000000000000000 2.0518314838409424 -0.0518315955996513 2.0491619110107422 3.9466280937194824 3.9466280937194824 1.0000000000000000 3.9466283321380615 1.0000000000000000 3.9466280937194824 -0.0518315955996513 -1.9403367042541504 1.0000000000000000 4.9984598159790039 2.8947966098785400 -0.0518316030502319 3.2706799507141113 2.0216286182403564 1.0000000000000000 1.0000000000000000 0.9986453056335449 1.0000000000000000 1.0000000000000000 4.9984598159790039 1.0000000000000000 2.0518314838409424 -1.9466282129287720 2.0518314838409424 3.9466283321380615 2.0518314838409424 -2.9984598159790039 -0.0518316030502319 1.0000000000000000 -0.0518316030502319 4.9984598159790039 2.0518317222595215 3.9466280937194824 3.9466283321380615 1.0000000000000000 4.7531118392944336 3.9472320079803467 2.0518314838409424 3.9466283321380615 3.9466283321380615 1.0000000000000000 2.0518314838409424 2.0518317222595215 0.5292593240737915 -1.9466282129287720 0.9563540220260620 1.0000000000000000 -0.3517806529998779 4.9984598159790039 3.9466280937194824 4.9984598159790039 2.8947966098785400 3.9466280937194824 3.9466283321380615
0.9355480670928955 2.2132325172424316 -2.9018754959106445 -0.0518316030502319 2.0518314838409424 1.0000000000000000 -0.9081750512123108 0.7479783296585083 1.0000000000000000 2.8947966098785400 1.0000000000000000 -2.9984598159790039 -0.0518316030502319 1.0000000000000000 1.0000000000000000 1.0000000000000000 3.9466283321380615 3.9466283321380615 3.5269782543182373 1.0000000000000000 1.0000000000000000 -2.9984598159790039 3.9466283321380615 1.0000000000000000 -1.5844016075134277 3.9466283321380615 2.8947966098785400 4.9391093254089355 2.8947966098785400 -0.0518316030502319 0.8909715414047241 0.3609600067138672 1.0000000000000000 -1.0254499912261963 -0.0518316030502319 4.9522647857666016 -2.9994201660156250 0.9986718893051147 2.0518314838409424 0.7224795222282410 2.0518314838409424 -2.9984598159790039 4.8883423805236816 4.9984598159790039 1.6383273601531982 2.8947966098785400 0.2165130227804184 -1.2812952995300293 1.0225546360015869 1.0000000000000000 0.8689320087432861 3.9466280937194824 2.5423276424407959 1.0000000000000000 1.0000000000000000 -2.9535074234008789 -0.4957754611968994 0.2839821577072144 1.0007053613662720 -0.8947966098785400 -2.1032867431640625 -0.0518315955996513 0.9588103294372559 2.0510282516479492 -0.0494941473007202 2.5114901065826416 2.0518314838409424 3.4789485931396484 3.9466283321380615 1.5308849811553955 1.0000000000000000 0.7698273658752441 1.0000000000000000 4.9984598159790039 -1.9466282129287720 3.9466280937194824 2.8947966098785400 4.9984598159790039 1.3103797435760498 -2.9993593692779541 1.4614862203598022 2.5508651733398438 -1.4674404859542847 4.2059059143066406 4.9984598159790039 1.0000000000000000 -0.0518316030502319 1.0000000000000000 0.8221755027770996 2.0518317222595215 3.9466283321380615 0.4335470795631409 -0.0518316030502319 2.8947966098785400 4.9899401664733887 1.8021246194839478 1.0000000000000000 0.9641354084014893 2.8947966098785400 1.0000000000000000 3.9466280937194824 2.8947966098785400 1.0000000000000000 0.7465293407440186 1.0000000000000000 -0.8947966098785400 -0.4429844021797180 4.9984598159790039 3.6982066631317139 3.9466280937194824 3.7163941860198975 4.9986810684204102 -0.0518316030502319 2.0518314838409424 0.5289592146873474 -0.8947966098785400 -1.9466282129287720 1.0000000000000000 -1.5865030288696289 3.9463102817535400 -1.9466282129287720 4.9984598159790039 2.8947966098785400 1.0000000000000000 2.0518314838409424 4.9984598159790039 4.9984598159790039 -0.6391737461090088
2.9587152004241943 -0.2792398333549500 -1.5113734006881714 4.2614703178405762 -2.4743683338165283 0.9984657168388367 -0.7628189921379089 3.0686511993408203 2.2478675842285156 1.7126386165618896 -2.3027555942535400 0.6754942536354065 1.3622517585754395 1.1308125257492065 -2.2039520740509033 -2.3077077865600586 0.6829410195350647 -2.9070084095001221 -2.5233380794525146 3.5116176605224609 -0.9658834338188171 4.5845775604248047 1.0683560371398926 4.6316032409667969 1.2978518009185791 -2.6568317413330078 1.2499351501464844 0.8884639143943787 -1.2530982494354248 1.2377743721008301 -2.5439047813415527 4.8916559219360352 -1.3962242603302002 -1.3801932334899902 2.5177774429321289 1.2414741516113281 1.1578049659729004 4.7666325569152832 0.8126353621482849 4.4928340911865234 1.8523206710815430 0.0869610905647278 4.0966215133666992 -2.5875134468078613 0.2870072424411774 4.4626488685607910 -2.8186063766479492 1.0128951072692871 -0.3681715726852417 -0.3716884851455688 3.5786817073822021 4.5564780235290527 0.9458626508712769 0.5946842432022095 -0.3333659172058105 -1.3192179203033447 -0.3842453956604004 0.4659992456436157 0.8788533210754395 4.5040564537048340 -2.3922102451324463 1.1776363849639893 1.1613881587982178 -1.9785573482513428 3.9984192848205566 0.8236547708511353 2.2678644657135010 1.3237860202789307 1.2258335351943970 -2.6573872566223145 0.6528734564781189 1.8785319328308105 3.7410902976989746 -1.7619991302490234 1.7231956720352173 4.6266460418701172 4.4727210998535156 -0.6609991192817688 -1.5317255258560181 -1.4175035953521729 -0.4484655261039734 -0.3130739927291870 2.0436286926269531 1.0029768943786621 -2.1539793014526367 2.6766352653503418 -0.7966260910034180 1.2785899639129639 0.8856521844863892 1.2890919446945190 -2.3661456108093262 0.1000374555587769 1.8432590961456299 1.7504889965057373 0.3391240835189819 2.0981798171997070 1.3678433895111084 4.6498527526855469 3.7466056346893311 4.5741095542907715 -1.7115387916564941 0.2478507161140442 0.8344043493270874 -1.1168723106384277 4.6700849533081055 -2.6006917953491211 -0.8700305819511414 -1.9167114496231079 1.9766666889190674 -0.9547723531723022 1.2581667900085449 3.5717976093292236 0.8212352991104126 4.0074076652526855 -0.8553585410118103 0.9459623098373413 -1.3724008798599243 2.6820447444915771 0.8416598439216614 2.4946708679199219 2.2909126281738281 3.5158395767211914 2.5296962261199951 0.4081076979637146 -2.6389517784118652 -2.2683100700378418 0.7030777335166931 -0.4091513752937317
