18
128 384
-0.66953605 -0.66953534 -0.66952634 -0.6695343 0 0
2.6695356 2.6695235 -0.66953975 2.669536 0 0
0.7301424 2.99923 -0.9992299 0.052601688 0 0
2.99923 1.9473983 1.9473983 1.9473983 0 0
1.9473983 1.9473983 1.9473983 1.9473983 0 0
-0.9992299 1.9473983 0.052601688 0.052601688 0 0
2.99923 2.99923 1.9473983 0.052601688 0 0
2.669536 -0.6695304 2.6695302 -0.66953605 0 0
-0.76504207 2.6699882 -0.6711665 -0.16672224 0 0
1.2956128 2.99923 -0.9992299 2.9949462 0 0
1.9473983 -0.9992299 -0.9992299 0.052601688 0 0
1.9473983 1.9473983 1.9473983 1.5424848 0 0
2.99923 1.9473983 2.99923 2.99923 0 0
1.9473983 0.052601688 -0.9992299 -0.9992299 0 0
1.2979796 0.052601688 2.99923 2.99923 0 0
2.4705038 -0.66976357 -0.6706279 1.9473983 0 0
-0.9992299 1.9473983 2.99923 1.9473983 0 0
1.9473983 1.9473983 1.9473983 2.99923 0 0
1.3969221 1.9473983 1.9473983 2.99923 0 0
-0.9992299 2.99923 -0.9992299 1.7811595 0 0
2.99923 2.99923 2.99923 2.99923 0 0
2.99923 1.9473983 1.9473983 1.9473983 0 0
2.99923 2.99923 2.99923 -0.9992299 0 0
2.99923 -0.9992299 1.9473983 0.39743307 0 0
1.9473983 -0.9992299 2.99923 -0.9992299 0 0
2.99923 1.9473983 -0.9992299 1.9473983 0 0
1.9473983 1.9473983 2.99923 2.99923 0 0
1.9473983 0.052601688 -0.9992299 0.052601688 0 0
1.9473983 2.99923 2.99923 1.9473983 0 0
1.9473983 2.99923 2.99923 1.9473983 0 0
2.99923 0.052601688 1.9473983 1.9473983 0 0
1.9473983 -0.9992299 1.9473983 0.052601688 0 0
-0.66878986 -0.66953605 2.6694357 2.6695702 0 0
-0.66942596 1.9473983 2.99923 -0.6695088 0 0
2.99923 2.99923 1.9473983 1.9473983 0 0
2.99923 2.99923 2.99923 2.99923 0 0
2.99923 0.052601688 1.9473983 1.9473983 0 0
1.9473983 1.9473983 2.99923 2.99923 0 0
-0.66963553 2.99923 2.66966 -0.9992299 0 0
-0.66953605 -0.66953605 2.6695354 -0.66953605 0 0
-0.66953605 2.669536 -0.66953605 2.669536 0 0
2.669536 -0.66953605 -0.66953605 -0.66953605 0 0
2.669536 -0.6694781 2.6698942 -0.66960794 0 0
-0.66953605 2.669536 -0.66953605 -0.66953605 0 0
2.669536 -0.66953605 -0.66953605 2.669536 0 0
-0.66953605 -0.66953605 -0.66953605 2.669536 0 0
2.669478 2.669536 -0.6695389 2.6692398 0 0
-0.66953605 -0.66953605 -0.66953605 -0.66953605 0 0
-0.66953605 -0.66953605 -0.66953605 -0.66953605 0 0
-0.66953605 2.669536 -0.66953605 2.669536 0 0
2.669536 -0.66953605 -0.66953605 -0.66953605 0 0
-0.66951483 2.669536 -0.66951287 -0.66953605 0 0
-0.66953605 -0.66953605 2.669536 -0.66953605 0 0
1.9473983 -0.6695964 1.9473983 -0.6694679 0 0
2.99923 1.9473983 2.99923 -0.9992299 0 0
-0.66953605 -0.66953605 2.669536 -0.66953605 0 0
-0.66953605 2.669536 2.669536 2.669536 0 0
-0.6695376 -0.66953605 -0.66944677 -0.66953605 0 0
2.99923 -0.9992299 1.4775388 2.99923 0 0
2.99923 -0.9992299 2.9981458 1.9473983 0 0
-0.9992299 1.9473983 0.052601688 -0.9992299 0 0
1.9473983 1.9473983 1.9473983 2.99923 0 0
1.9473983 1.9473983 2.99923 1.6736236 0 0
-0.66953605 -0.66953605 2.669536 -0.66953605 0 0
-1.569536 1.7694972 -1.569494 -1.569536 -1.5695322 1.7694833
-1.569536 1.769536 -1.5695305 -1.5692575 -1.569536 -1.5695229
-1.569536 1.7695172 -1.5695295 -1.5694214 -1.569536 -1.5695343
-1.569536 -1.569536 -1.5695322 -1.569536 1.7694998 1.7694976
-1.5695143 -1.5695343 -1.5695262 1.769536 -1.569536 -1.569536
0.98726964 1.7698994 -0.8473983 1.7698097 -1.5713023 1.7736347
-1.5695059 -1.569536 -1.569536 -1.5694983 1.7694817 -1.5695355
-1.8992299 -0.27153444 2.0992298 -0.8473983 -1.8992299 0.82918423
1.0473983 2.0992298 2.0992298 2.0992298 0.61221313 2.0992298
2.0992298 -0.44629002 -1.5697153 -1.5697389 -1.5694387 -1.5734982
2.0959735 1.0473983 2.0992298 1.0473983 1.0473983 1.0473983
0.9767575 1.0473983 2.0992298 2.0992298 1.0473983 1.0473983
2.0992298 -1.6527221 2.0992298 2.0992298 0.85824835 1.0473983
-0.8330764 -1.8992299 1.9911647 1.0473983 -0.7086905 -0.8473983
1.0473983 1.0473983 2.0992298 1.0473983 2.0992298 2.0992298
1.0473983 1.0473983 1.0473983 1.0473983 1.9014301 -1.8992299
-1.8992299 -0.8473983 2.0992298 -0.8473983 -1.8992299 -0.8473983
1.0473983 1.0473983 1.0473983 0.7354537 1.0473983 1.0473983
2.0992298 -1.8992299 -1.8992299 -1.8992299 -1.8992299 -0.8473983
1.769536 -1.569536 1.769536 -1.5695322 1.7695177 -1.569536
1.0473983 1.0473983 1.0473983 -0.8473983 1.0473983 2.0992298
2.0992298 1.0473983 1.0473983 -0.8473983 1.0473983 1.0473983
-1.569536 -1.569536 1.7694417 1.7694812 -1.569536 1.7695363
-1.569536 1.7695248 -1.569536 -1.569536 1.769536 -1.569536
-1.569536 -1.5696795 1.7694967 1.7695125 -1.5695021 -1.5695359
-1.8971583 2.0992298 -1.5692937 -1.5695784 1.769144 -1.5682275
-1.7663699 1.7690787 -1.5686893 -1.0166849 1.7696416 1.7695519
-0.8473983 1.0473983 -1.5692091 -1.5700924 -1.5700381 -1.5678575
2.0992298 1.0473983 1.0473983 1.0473983 1.0041902 2.0992298
1.0473983 -1.829107 -1.8992299 -1.8992299 2.094293 -1.8992299
2.0992298 -1.8992299 -0.69974625 -0.8473983 -1.8992299 -0.8473983
1.0473983 2.0180922 2.0992298 1.0473983 1.0473983 1.9966389
0.83468485 1.0473983 2.060914 -0.8473983 -1.8992299 -0.8473983
-0.17537439 1.0473983 -0.40214705 -1.8992299 1.9071594 -1.8992299
1.0473983 2.0992298 2.0992298 1.0473983 2.0992298 2.0992298
2.0992298 -1.8992299 -0.8473983 -0.8473983 -1.8992299 -0.8473983
1.0473983 -0.18888783 -1.8643335 -1.8992299 -0.8473983 -1.8992299
-1.5694933 1.7057399 -1.5682542 -1.5696704 -1.5687809 1.7273185
2.0992298 1.0473983 2.0992298 2.0992298 2.0992298 -1.8993645
1.3967632 -1.5703547 -1.5684965 1.7981907 -1.5701528 -1.5689771
2.0992298 2.0992298 -0.4309071 2.0992298 1.0473983 -1.7700162
-1.8118643 1.0473983 1.0473983 1.044826 0.8706991 2.0992298
2.0998785 1.0473983 2.0992298 1.0473983 1.0473983 1.9039358
1.0473983 2.0992298 1.0473983 2.0992298 1.0473983 2.0992298
1.0473983 2.0992298 0.687322 2.0992298 1.0473983 1.0473983
-0.8473983 -1.8992299 -0.8473983 2.0992298 -0.8473983 -1.8565097
1.0473983 1.0473983 1.0473983 2.0992298 1.0473983 2.0992298
-1.8992299 -0.2646696 2.0992298 -1.8992299 -0.8473983 2.0141017
1.0473983 2.0992298 1.0473983 2.0992298 1.0473983 1.0473983
1.0473983 2.0992298 1.0473983 1.0473983 2.0992298 1.0473983
2.0992298 2.100307 2.0992298 1.0473983 2.0992298 1.0473983
2.0992298 2.0992298 2.0992298 1.0473983 1.0473983 2.1003408
1.0473983 1.0112752 2.0992298 1.0473983 1.0473983 2.0992298
2.0992298 -1.7540474 2.0992298 -1.8992299 2.0992298 -0.730252
2.0992298 1.0473983 1.0473983 -1.8130869 1.0473983 0.51335543
1.0473983 -0.6921706 1.0473983 1.0473983 2.1004672 -0.8473983
1.0473983 1.0473983 0.4924885 1.0473983 2.0992298 -1.9005816
1.7710657 1.7688079 -0.8473983 -1.8998568 1.7696009 1.7693764
-1.5703335 -1.569536 -1.5694449 -1.5691547 1.0473983 1.0473983
1.0473983 2.0992298 2.0992298 2.0992298 1.0473983 1.0473983
-1.5692015 -1.6926682 -1.5697507 -1.5696449 1.0473983 -1.5696468
-0.8473983 1.0473983 -1.8992299 -0.8473983 -1.8992299 -0.8473983
2.0992298 2.0992298 2.0992298 2.0992298 2.0992298 2.0992298
1.0473983 -0.82085633 -0.6295618 -1.8992299 -1.8992299 -1.8992299
2.0992298 2.0992298 -1.8992299 -0.36989927 -0.8473983 0.4978069
1.0473983 1.0473983 1.0473983 0.8605625 1.9584451 2.0992298
2.0992298 2.0992298 1.0473983 1.0473983 0.67764485 1.0473983
2.0992298 2.0992298 2.0992298 2.0992298 2.0992298 -1.8792399
2.0992298 0.840016 1.0473983 2.0992298 1.0473983 -0.7049365
2.0992298 0.9864738 2.0992298 -1.8829457 1.0473983 2.0992298
1.7694545 1.858491 1.7702179 -1.5682597 -1.5696197 -1.8992299
-1.569536 -1.569536 -1.569536 -1.569536 -1.5694728 -1.5695082
-1.5687153 1.769536 1.769536 1.7695603 1.769536 -1.5695405
1.769533 1.769536 -1.569536 1.769536 1.769536 1.769536
-1.569536 -1.569536 -1.569536 -1.569536 -1.569536 -1.569536
-1.5694904 -1.5694396 0.4434232 -1.5694262 1.0473983 -1.5697725
-1.569536 1.7695305 1.769536 -1.569536 1.7695255 -1.5695175
2.0992298 2.0992298 2.0992298 -0.16165644 2.0992298 2.0992298
1.769536 1.7695711 1.769536 1.769536 1.7696521 1.7694688
1.7709348 1.7698551 1.9554873 2.0992298 1.7697353 1.7692654
-1.569536 1.7695217 -1.569536 -1.5695131 1.769384 1.7692648
1.7678704 1.7703419 -0.2114209 1.0473983 -1.5702391 1.7695522
1.769536 -1.569536 1.769536 1.769536 -1.5698576 1.769711
1.769536 1.769536 1.7699041 1.7697732 1.769536 -1.5696526
1.7695292 -1.56899 1.7695258 1.769536 1.7747653 1.769536
-1.569536 -1.569536 1.769536 -1.569536 1.769536 -1.569536
-1.569536 1.769471 -1.569535 1.7697427 -1.5695326 1.7695048
-1.569536 -1.569536 -1.569536 -1.569536 -1.569536 -1.569536
-1.569536 -1.5694741 1.769536 1.7694123 -1.569536 1.769536
-1.569536 1.769536 1.769536 1.769536 1.7695034 1.769536
-1.569536 1.769536 1.76953 1.769536 1.769536 1.769536
1.7695284 1.769536 -1.569536 -1.569536 -1.569536 -1.5695298
1.7692977 -1.569536 -1.569536 -1.5686374 -1.569536 -1.5694155
-1.569536 -1.569536 -1.569536 1.769536 -1.569536 -1.569536
1.769536 -1.569333 -1.5693945 1.7695334 -1.569536 -1.569536
-1.569536 -1.569536 1.769536 -1.569536 -1.569536 -1.569536
-1.569536 1.769536 -1.5695355 -1.569536 1.769536 1.769536
-1.569536 1.769536 -1.569536 1.7695029 -1.569536 1.769536
-1.569536 -1.569536 -1.569536 -1.569536 1.7695208 -1.569536
-1.569536 1.7694592 -1.569536 1.7695317 -1.569536 1.769536
1.769536 -1.569536 1.769536 1.769536 1.769536 -1.569536
-1.569536 1.769536 -1.5694772 1.769536 -1.569536 1.769536
-1.569536 1.769536 -1.569536 1.769536 1.769536 1.769536
-1.569536 -1.569536 -1.569536 -1.569536 1.7695348 -1.569536
-1.569536 -1.569536 -1.569536 -1.569536 -1.5695317 -1.569536
-1.569536 -1.569536 -1.569536 -1.569536 -1.569536 -1.569536
-1.569529 1.769536 1.769536 1.769536 1.769536 -1.5695056
-1.569536 1.7695341 1.7694298 1.769536 -1.569536 1.769536
1.7695247 -1.569536 -1.569536 -1.5694182 1.7695343 1.7695332
-1.5694878 -1.569536 -1.569536 -1.569536 -1.569536 -1.569536
1.7695177 -1.5697644 -1.5695684 -1.5695295 1.7694943 1.7695317
1.769536 -1.569536 1.769536 -1.569536 -1.5695109 -1.569536
1.7695324 -1.5695145 -1.569521 -1.569536 -1.5695063 1.769536
1.769536 1.769536 1.769536 -1.569536 1.769536 -1.569536
-1.569536 1.769536 1.7695361 1.7696263 1.7686247 -1.569536
1.7690623 -1.569536 -1.569536 -1.569536 1.7694455 -1.5693742
-1.5697991 1.0473983 1.0473983 -1.5695832 -1.5697021 -1.5699149
1.769536 -1.569536 1.769536 -1.569536 1.769536 -1.569536
2.0992298 1.0473983 1.3038335 0.6228 1.0473983 0.9313446
-1.569536 -1.569536 1.7695291 -1.569536 1.7695305 -1.569536
-1.569536 1.7695084 1.769536 1.769536 1.7694852 -1.5694089
-1.569536 -1.5638752 1.769536 1.769536 -1.5695188 1.769536
-1.569536 1.7695217 -1.569536 -1.5695279 -1.5695317 1.7694173
1.0473983 1.0473983 2.0049167 -0.29041487 0.88761926 2.0992298
1.8707819 -0.5072896 -0.83066934 1.0473983 -1.7560877 -0.8473983
-1.9003084 -0.8473983 2.0992298 -1.8992299 1.8826252 -0.8473983
1.0473983 2.0992298 1.0473983 2.0992298 1.0473983 0.6889751
1.769536 -1.569536 1.769536 -1.569482 1.769536 -1.569536
2.669536 2.6693969 -0.66966325 -0.6696815 0 0
1.9473983 2.99923 1.9473983 2.99923 0 0
1.9473983 2.99923 1.9473983 -0.9992299 0 0
1.9473983 1.9473983 1.9473983 2.99923 0 0
1.9473983 1.9473983 2.99923 1.9473983 0 0
2.99923 1.9473983 1.9473983 2.99923 0 0
2.99923 -0.9992299 2.99923 1.9473983 0 0
-0.66953605 -0.6698867 -0.66924214 -0.6697794 0 0
-0.6697948 -0.66934633 -0.6696222 -0.66953605 0 0
0.052601688 2.99923 -0.6708415 -0.6678772 0 0
2.99923 0.052601688 -0.9992299 0.052601688 0 0
1.9473983 0.052601688 -0.9992299 0.052601688 0 0
2.99923 2.99923 1.9473983 1.9473983 0 0
0.052601688 1.9473983 2.99923 2.99923 0 0
-0.9992299 1.9473983 0.052601688 -0.9992299 0 0
-0.66953605 -0.66953605 2.669536 -0.66953605 0 0
2.99923 1.9473983 2.99923 2.99923 0 0
1.9473983 2.99923 1.9473983 2.99923 0 0
1.9473983 1.9473983 1.9473983 2.99923 0 0
0.052601688 2.99923 -0.9992299 1.4207816 0 0
1.9473983 2.99923 3.0003726 2.99923 0 0
1.9473983 2.99923 2.99923 1.9473983 0 0
1.9473983 1.9473983 2.99923 1.9473983 0 0
2.7801402 -0.9992299 2.99923 0.052601688 0 0
0.052601688 2.99923 1.9473983 -0.95447373 0 0
1.9473983 1.9473983 1.9473983 2.99923 0 0
2.99923 0.61615425 1.9473983 1.9473983 0 0
2.99923 2.99923 2.99923 1.9473983 0 0
1.9473983 1.9473983 1.9473983 1.9473983 0 0
2.99923 1.9473983 1.9473983 2.99923 0 0
1.9473983 1.9473983 2.99923 0.052601688 0 0
2.99923 2.99923 2.99923 0.052601688 0 0
-0.2608918 2.6694882 2.6691442 -0.6253342 0 0
2.8694372 1.9473983 2.99923 2.99923 0 0
2.99923 1.9473983 2.99923 1.9473983 0 0
2.99923 1.9473983 1.9473983 1.9473983 0 0
2.99923 1.9473983 2.99923 0.052601688 0 0
1.9473983 2.99923 1.9473983 0.052601688 0 0
2.669774 0.052601688 2.669094 -0.8805991 0 0
-0.669536 -0.6696143 -0.66953605 -0.66953605 0 0
-0.66953605 -0.6699925 2.6695364 2.6695352 0 0
0.052601688 2.6698022 2.6696916 2.997324 0 0
-0.66933084 -0.9992299 -0.66992694 -0.9992299 0 0
-0.6698158 -0.6695279 2.669536 -0.66947025 0 0
-0.6694983 -0.6695368 -0.66953605 -0.66953605 0 0
-0.66950184 -0.669489 2.669536 2.6695347 0 0
2.669536 -0.66953605 -0.66953605 -0.66953605 0 0
-0.66953605 2.669536 2.669536 2.669536 0 0
-0.66953605 2.669536 -0.66953605 -0.66953605 0 0
-0.66953605 2.6695218 -0.66939664 -0.66953605 0 0
-0.66953325 2.669536 2.669536 -0.66953605 0 0
2.669536 -0.66953605 -0.66953486 2.669536 0 0
-0.66953605 -0.66953605 -0.66953605 -0.66953605 0 0
1.9473983 -0.6695485 2.2768507 -0.669744 0 0
2.669536 -0.66953605 -0.66953605 2.669564 0 0
-0.66953605 -0.66953605 -0.66953605 -0.66953605 0 0
-0.66953605 2.669536 -0.66953605 2.669536 0 0
-0.66953605 -0.669433 -0.6695153 -0.66953605 0 0
1.9447534 -0.66967654 1.9473983 2.669097 0 0
-0.66976297 2.99923 2.99923 -0.6679066 0 0
1.9473983 -0.6697087 1.9473983 -0.66933906 0 0
2.99923 1.9473983 2.99923 1.9473983 0 0
2.6696396 0.052601688 -0.9992299 2.6694915 0 0
-0.66953605 2.669536 -0.66953605 -0.66953605 0 0
1.769536 1.7695991 1.0473983 1.7692225 1.0168701 1.7695327
-1.5695305 -1.5695288 -1.569536 -1.569536 -1.569536 -1.5695245
-1.5693933 1.769536 -1.569536 -1.569536 -1.569536 1.769536
1.769536 1.7695215 -1.569536 1.769421 1.76953 -1.569536
2.1005812 2.0992298 2.0992298 1.0473983 -1.6489215 1.0473983
1.7693396 -1.5694675 1.7699413 1.7698288 -1.5695344 1.7694676
-1.569515 -1.5695188 -1.5695276 -1.569356 -1.5695255 1.7695241
2.0992298 1.0473983 1.0473983 2.0992298 0.6093601 1.0473983
-0.42937338 0.75192904 2.0992298 -0.8473983 -0.8473983 -1.8890605
1.7696406 1.7692289 1.0473983 -1.5696641 1.7692597 2.0992298
0.88571465 2.0992298 0.78050053 1.0473983 1.0473983 2.0992298
1.9336052 -1.8992299 1.0473983 2.098913 0.67072594 -0.8473983
1.7615628 -1.56935 -1.5696899 2.0992298 1.7675645 2.0992298
2.0992298 1.0473983 2.0992298 1.0473983 2.0992298 2.0992298
1.0473983 1.0473983 2.0992298 2.0699124 1.0473983 1.0473983
-1.5690675 -1.5693291 1.0473983 -1.5696431 -1.5695008 1.0473983
1.0473983 -1.8992299 1.0473983 2.0949888 1.0473983 2.0720725
2.0992298 1.0473983 -1.8950491 0.51727676 2.0992298 2.0992298
2.0992298 2.0992298 2.0992298 2.0992298 2.0992298 1.0473983
-1.569536 1.7701025 1.7835633 -0.8473983 1.7694788 -1.8992299
-1.5689635 -1.8911619 -1.5709752 1.0473983 -1.5695233 -1.5696273
1.769536 -1.5697029 1.769536 -1.5694964 1.7695305 -1.5693288
-1.5695345 1.7695296 -1.569536 -1.569536 -1.569536 1.769536
-1.5695329 -1.5695232 -1.569536 -1.5695294 -1.569536 -1.569536
-1.5694993 -1.5691638 -1.5694429 -1.5680774 -1.5695329 1.769536
1.769522 -1.569536 -1.569536 -1.569536 -1.5695354 -1.569536
1.7697427 1.7692578 -1.5695152 -1.569536 1.7694397 -1.569536
2.1005225 1.953074 1.0473983 1.0473983 2.0992298 2.0992298
-1.8485401 2.0992298 -1.5696194 -1.5701602 -1.570045 -1.5698514
1.0473983 -1.8992299 -0.8473983 -0.8473983 -0.8473983 -0.53900087
2.0992298 -1.8992299 -1.8992299 -1.8990407 -0.8473983 -0.8473983
2.0992298 -0.8473983 -1.8992299 -1.8992299 2.0736291 -1.8999172
1.0473983 -0.8473983 -0.76778185 1.0224029 -1.8992299 -1.7948858
2.0992298 1.0473983 1.0473983 2.0992298 1.0473983 2.0992298
1.9322581 -0.8473983 2.0992298 2.091354 2.0992298 -0.8473983
-0.8473983 1.0473983 -1.5693271 -1.5674219 -1.5692687 -1.5697626
2.100124 1.0473983 1.0473983 2.100584 2.0992298 1.0473983
1.7693288 -1.569536 -1.569536 1.7697511 -1.569536 1.7699478
-1.8992299 1.0473983 -1.8992299 -0.8473983 -0.46482205 -1.8977613
1.7693675 1.7694399 1.7692783 -1.569536 1.7697582 1.7695179
1.0473983 2.0992298 -1.8992299 1.0473983 2.0992298 2.0992298
1.0473983 2.0992298 -0.61229175 -0.8473983 0.72485363 2.0992298
-0.6957164 2.1001537 -0.8473983 2.0992298 2.0992298 -1.8992299
1.0473983 2.0992298 2.0992298 1.0473983 2.0992298 1.0473983
0.9965966 2.0992298 1.0473983 2.0992298 1.0473983 1.0473983
-0.8473983 2.0992298 -0.8473983 0.42937982 -1.8992299 -1.8719525
2.0992298 1.0473983 2.0992298 1.0473983 1.0473983 1.0473983
2.0992298 1.0473983 0.6976676 2.0992298 2.0992298 1.0473983
-0.5236807 2.0992298 0.72319853 0.7748836 0.7701303 1.944577
1.0473983 2.0996675 1.0473983 2.0992298 2.0992298 2.0992298
1.0473983 1.0473983 2.0700572 2.1000822 0.725627 1.8627403
1.0473983 2.0992298 1.0473983 1.0473983 1.0473983 1.0473983
1.0473983 2.0947206 1.0473983 1.0473983 1.0473983 2.0992298
2.0670958 -0.8473983 -0.8473983 2.0992298 -1.8952097 2.0269518
0.9529706 1.0473983 1.0473983 1.0473983 1.0473983 2.0322034
2.0929065 -0.8473983 1.9135668 1.8779595 1.0473983 -1.8992299
0.6422187 1.0473983 1.0473983 1.0473983 -1.8819118 1.0473983
2.0992298 2.0992298 2.1005452 0.669131 2.0959613 -1.8992299
-1.5695486 1.769414 -1.4430587 1.7694391 -1.5695596 -1.555227
1.0473983 0.99398947 1.0473983 1.0473983 1.0473983 2.0992298
2.0992298 1.0473983 1.9189483 2.0992298 1.0473983 2.0992298
2.0992298 2.0992298 2.0992298 2.0992298 1.0473983 1.0473983
1.0473983 1.0473983 2.0992298 1.0473983 2.0992298 1.0473983
0.96918 1.0473983 0.6446138 2.0992298 1.0473983 1.0473983
2.0992298 2.0992298 1.0473983 1.0473983 1.0473983 1.0473983
1.0473983 2.0992298 2.0963478 1.0473983 1.0473983 2.0691476
2.0999947 2.0992298 2.0992298 0.85285735 1.0473983 -1.900441
1.0473983 2.0704546 2.0992298 2.0992298 2.0540776 -0.24613148
2.0992298 2.0992298 1.0473983 0.82301027 2.0992298 2.0420809
1.0473983 2.0992298 2.0992298 1.0473983 1.0473983 -0.71661377
1.769588 1.7697706 -1.5693913 -0.8473983 1.7688829 -1.8992299
-1.569536 -1.569536 -1.5695374 -1.5696063 -1.569536 -1.569536
-1.4007452 1.7695856 -1.5698495 1.7694895 -1.546288 1.7695751
1.7695351 -1.5696397 1.7691545 -1.569536 -1.5695364 -1.569536
1.7695374 -1.569529 -1.569536 -1.6137967 1.769536 1.7695353
1.0473983 1.0473983 1.0473983 2.0992298 1.0473983 2.0992298
1.7695695 1.7694724 1.9236352 1.7696743 1.7696033 1.9898968
2.0992298 2.0992298 2.0992298 2.0992298 2.0992298 2.0992298
-1.5694675 -1.571238 -1.5691804 2.0992298 -1.5685446 -0.18488258
2.0992298 1.0473983 2.0992298 2.0992298 2.0992298 -1.6449797
1.769536 1.769536 -1.5697222 -1.569556 1.769536 -1.5692885
2.100275 1.9705229 2.1000707 1.0473983 -0.8473983 -0.23291183
-1.569536 -1.569536 -1.56954 -1.569556 -1.569536 -1.569536
1.7662435 -1.8916993 1.769686 1.7707626 1.7709167 -1.7570994
1.7695185 -1.5694865 -1.5695345 -1.569536 1.769536 -1.5695381
-1.5695362 -1.5695016 -1.569536 -1.569536 -1.5695434 -1.569536
-1.5695295 -1.569536 -1.569536 -1.569536 1.76953 -1.569536
1.769536 1.769536 -1.569536 1.769536 1.769536 1.769536
-1.569536 -1.5694531 1.7695363 -1.569536 1.769536 1.7689213
1.7695191 -1.569536 -1.569536 -1.569536 -1.569536 -1.569536
-1.569536 1.769536 1.769536 1.769536 1.769536 1.769536
1.7695212 1.769536 -1.569536 -1.569536 1.7695184 1.769536
-1.5695333 1.769536 -1.569536 1.769536 1.769536 -1.569536
1.7692531 1.7695723 -1.569536 -1.569536 1.7665242 -1.5693257
-1.5694873 -1.569536 -1.5695161 -1.569536 1.769536 -1.569536
-1.5693827 -1.569536 -1.569536 -1.569536 -1.569536 -1.5695295
-1.5694656 1.769536 1.769536 -1.569536 -1.569536 -1.5695255
-1.569536 1.7695298 -1.5695156 -1.56952 -1.569536 -1.569536
1.769536 -1.569536 -1.569536 -1.569536 -1.569536 -1.569536
-1.5695345 -1.569536 1.7694918 -1.569536 -1.5695355 -1.569536
1.769542 -1.5695201 1.7694817 -1.569536 1.769536 -1.569536
-1.569536 1.7694932 1.769536 1.769536 1.769536 1.769536
-1.5695353 -1.569536 1.7695317 -1.569536 -1.569536 1.7695329
-1.569536 1.769536 1.769536 1.769536 1.769536 1.769536
-1.569536 1.7695353 -1.569536 1.7695255 -1.569536 1.7695358
-1.569536 -1.569536 -1.569536 -1.569536 -1.569536 -1.569536
-1.569536 -1.569536 -1.569536 -1.569536 -1.569536 -1.5695355
1.769536 -1.5695344 1.7694864 1.7695014 1.7694588 -1.569536
-1.569536 1.7689672 -1.569536 -1.5695267 1.7695315 1.7695355
-1.5694349 -1.569536 -1.569535 -1.569536 -1.5695343 -1.569536
1.7695185 1.769536 1.769536 -1.569536 1.769536 1.7693771
-1.569536 -1.569536 -1.569536 -1.569536 1.7695205 -1.569536
1.769536 1.769536 -1.569536 1.769536 1.769536 -1.569536
1.769536 -1.569536 1.769536 1.769536 1.769536 -1.569536
1.769536 1.769536 1.769536 -1.569536 1.769536 -1.569536
1.769536 -1.569536 1.769536 -1.569536 -1.569536 -1.569536
1.0473983 -1.5695348 -1.5696187 -1.5697647 2.0550537 -1.569621
-1.569536 1.7694634 -1.569536 -1.569536 -1.5694824 -1.569536
1.7695074 -1.569536 1.769536 -1.5695103 -1.569536 1.769536
-1.569536 -1.569536 -1.569536 -1.5695355 -1.569536 -1.569536
-1.569536 1.7695239 -1.569536 1.769536 -1.5693746 -1.5695179
-1.5694784 -1.569536 -1.569536 -1.569536 -1.5695336 -1.569536
-1.5694792 -1.569536 1.7695054 1.7692962 -1.569536 1.7694929
-1.5695139 -1.5695361 -1.5695071 -1.569536 1.7694485 1.769536
1.7697004 1.769576 -1.8992299 -1.8992299 1.7696043 1.769335
1.0473983 -1.5694492 1.0473983 -1.5697368 -1.5696955 -1.569944
1.7694582 -0.76863575 1.7693415 -1.8207471 1.7693311 1.769489
-1.569536 1.769536 1.7695239 -1.569536 1.769536 -1.569536
-0.66953605 -0.669536 -0.66952944 -0.66953605 0 0
2.9984443 -0.670116 0.052601688 2.6692085 0 0
0.052601688 2.99923 -0.9992299 0.052601688 0 0
1.9473983 2.99923 2.99923 1.9473983 0 0
1.9473983 1.9473983 1.9473983 1.9473983 0 0
0.052601688 1.9473983 -0.9992299 0.052601688 0 0
1.9473983 2.99923 2.99923 0.052601688 0 0
2.6695185 -0.6695359 -0.6695361 -0.66953605 0 0
-0.6695319 2.669536 -0.66953784 -0.6695348 0 0
1.9473983 1.8455322 -0.9992299 1.9473983 0 0
1.9473983 -0.9992299 -0.9992299 -0.9992299 0 0
1.9473983 1.9473983 1.9473983 0.052601688 0 0
2.99923 1.9473983 2.99923 1.9473983 0 0
1.9473983 -0.9992299 -0.9992299 0.052601688 0 0
0.052601688 -0.9992299 2.99923 1.9473983 0 0
2.99923 -0.66828203 -0.66990465 2.9886858 0 0
0.052601688 1.9473983 2.99923 2.99923 0 0
1.9473983 2.99923 2.99923 2.99923 0 0
1.9473983 1.9473983 1.9473983 2.99923 0 0
0.052601688 2.99923 0.052601688 2.99923 0 0
2.99923 1.9473983 1.9473983 2.99923 0 0
1.9473983 2.99923 1.9473983 0.052601688 0 0
1.9473983 1.9473983 1.9473983 -0.9992299 0 0
2.99923 0.052601688 1.9473983 -0.9992299 0 0
2.99923 -0.9992299 1.9473983 0.052601688 0 0
1.9473983 2.99923 2.99923 1.9473983 0 0
1.9473983 1.9473983 1.9473983 1.9473983 0 0
1.9473983 -0.9992299 0.052601688 0.052601688 0 0
2.99923 2.99923 2.99923 2.99923 0 0
1.9473983 2.99923 1.9473983 1.9473983 0 0
2.99923 -0.9992299 2.99923 2.99923 0 0
1.9473983 0.052601688 1.9473983 -0.9992299 0 0
-0.6682658 -0.66953605 1.9473983 2.99923 0 0
-0.66955024 1.9473983 2.7034092 -0.66937137 0 0
1.9473983 2.99923 2.99923 2.99923 0 0
1.9473983 0.052601688 2.99923 1.9473983 0 0
1.9473983 2.99923 2.99923 1.9473983 0 0
0.052601688 2.99923 1.9473983 1.9473983 0 0
-0.6701702 1.9473983 2.6692123 -0.9992299 0 0
-0.66953605 -0.66953516 2.6698222 -0.6695416 0 0
-0.66953605 2.669536 -0.66953605 2.669536 0 0
2.6695137 -0.66953605 -0.66953605 -0.6695147 0 0
2.99923 0.6500019 2.99923 0.052601688 0 0
-0.6689998 1.9473983 -0.6695873 -0.9992299 0 0
2.669536 -0.6695179 -0.6695276 2.6694198 0 0
2.669302 -0.9992299 -0.9992299 2.6694195 0 0
1.9473983 2.6694965 -0.6694426 2.99923 0 0
-0.66953605 2.6695335 -0.66953605 -0.66953605 0 0
-0.66953605 -0.66953605 -0.66953605 -0.66953605 0 0
-0.66953605 -0.66953605 -0.66953605 2.669536 0 0
2.6695843 -0.6695731 -0.03435654 0.052601688 0 0
-0.6697705 2.669536 -0.6694255 -0.6695309 0 0
-0.6697086 -0.66953605 2.6695678 -0.6693035 0 0
1.9473983 -0.6692636 1.9473983 -0.66951245 0 0
2.99923 1.4607202 2.99923 -0.9992299 0 0
-0.66953605 -0.669536 2.669536 -0.66953605 0 0
-0.66953605 2.669536 2.669536 2.6695337 0 0
-0.6695276 -0.66953605 -0.66953313 2.669507 0 0
-0.9657892 -0.9992299 1.7610918 2.99923 0 0
1.9473983 -0.9992299 2.99923 2.99923 0 0
-0.9992299 1.9473983 0.052601688 0.052601688 0 0
1.9473983 1.9473983 1.9473983 2.99923 0 0
0.052601688 1.9473983 2.99923 0.052601688 0 0
-0.66953605 -0.669472 2.669536 -0.66953427 0 0
-1.569536 -1.5695277 -1.5695357 -1.569536 -1.5694567 -1.569536
-1.569536 1.769536 -1.569536 -1.569536 -1.569536 -1.569536
-1.569536 -1.569536 -1.569536 -1.569536 -1.569536 -1.569536
-1.569536 -1.569536 -1.569536 -1.569536 1.7695327 -1.5695052
-0.7545415 -1.5692234 -1.5698128 1.7696722 -1.0159545 -1.5691667
1.769536 -1.569536 -1.569536 1.769536 -1.5695362 1.7695343
-1.569536 -1.5695136 -1.5695308 1.7695131 1.7694236 -1.5695242
-1.8992299 2.0992298 2.0992298 -0.8473983 -0.8473983 2.0992298
0.72187793 1.0473983 -1.842737 1.0473983 -0.8473983 0.73720026
2.0992298 0.60514075 -1.8992299 -0.8473983 2.0992298 2.1003985
2.0992298 2.0992298 2.0992298 2.0992298 2.0992298 1.0473983
2.0992298 1.0473983 1.0473983 2.0992298 1.0473983 1.0473983
1.0473983 1.0473983 2.0992298 2.0992298 1.0473983 2.0992298
-0.8473983 -0.8473983 2.0992298 1.0473983 1.0473983 -0.8473983
1.0473983 1.0473983 2.0992298 2.0992298 2.0992298 2.0992298
1.0473983 1.0473983 2.0992298 2.0992298 -0.60847545 -0.8473983
-1.8992299 2.0992298 2.0992298 1.8750834 -1.8992299 -1.8992299
2.0992298 1.0473983 2.0992298 -0.8473983 1.0473983 2.0992298
1.0473983 -0.8473983 -0.8473983 -0.8473983 -1.8992299 -1.8992299
1.769536 -1.569536 1.769536 -1.5695355 1.769536 -1.569536
2.0992298 1.0473983 2.0992298 -1.8992299 2.0992298 1.0473983
2.0992298 2.0992298 2.0992298 -0.8473983 1.0473983 2.0992298
-1.569536 -1.569536 1.769536 -1.569536 -1.569536 1.7695365
-1.569536 1.769536 -1.569536 -1.569536 1.769536 -1.569536
-1.4080805 1.7676791 1.7668182 -1.569449 1.7712116 -1.8998482
-1.5695336 1.7695398 -1.569422 -1.569536 1.7695347 -1.569536
-1.5695322 1.769536 -1.5695372 -1.5695333 1.769536 1.769536
-1.900317 1.0473983 -0.8473983 -1.8992299 -1.8992299 -1.8992299
2.0992298 2.0992298 1.0473983 1.0473983 1.0473983 2.0992298
2.0992298 2.0992298 -1.8465459 2.0992298 2.0992298 -1.8992299
1.0473983 -1.8994248 -1.8992299 -1.8992299 1.0473983 -0.8473983
1.0473983 2.0992298 1.0473983 1.0473983 1.0473983 1.0473983
1.0473983 2.0992298 2.0992298 -1.8992299 -0.8473983 -1.8943746
1.0473983 1.0473983 1.0473983 -1.8992299 1.0473983 -0.8473983
1.0473983 2.0992298 2.0992298 2.0992298 1.0473983 1.0473983
2.0992298 -0.8473983 -1.8992299 -1.8992299 -1.8992864 -1.8992299
2.0992298 1.8717122 -1.8992299 -0.8473983 2.0992298 -1.8992299
-1.575958 1.0473983 -1.5701656 -1.5676125 -1.5714549 2.0101726
2.0992298 1.0473983 2.0992298 1.0473983 1.0473983 -1.8992299
1.0473983 -1.5718299 -1.5691786 1.0473983 -1.576425 -1.569654
2.0992298 1.0473983 2.0992298 1.0473983 2.0992298 2.0992298
-0.8473983 1.0473983 2.0992298 1.0473983 1.0473983 1.0473983
-0.8473983 -1.8992299 1.0473983 1.0473983 1.0473983 -0.8473983
1.0473983 1.0473983 2.0992298 1.0473983 1.0473983 2.0992298
1.0473983 2.0992298 1.0473983 2.0992298 1.0473983 1.0473983
-1.8992299 -1.8992299 -1.8992299 2.0992298 0.42279977 -1.8993601
1.0473983 1.0473983 1.0473983 2.0992298 2.0992298 2.0992298
-1.8992299 2.0992298 2.0992298 -0.7348536 -0.8473983 2.0992298
2.0992298 2.0992298 2.0992298 1.0473983 2.0992298 2.0992298
2.0992298 1.0473983 2.0992298 2.0992298 2.0992298 -0.25407803
2.0992298 2.0992298 2.0992298 1.0473983 1.0473983 1.0473983
1.0473983 1.0473983 1.0473983 2.0992298 2.0992298 -1.8992299
2.0992298 2.0992298 1.0473983 2.0992298 1.0473983 1.0473983
1.0473983 2.0970607 2.0992298 -1.8992299 2.0992298 -1.8992299
1.0473983 1.0473983 2.0992298 -1.8992299 2.0992298 2.0992298
1.0473983 -0.8473983 2.0992298 2.0992298 -0.1651411 -1.8992299
1.0473983 1.0473983 -1.8992299 2.0992298 2.0992298 -0.8473983
0.7151301 2.0992298 -0.8473983 -0.80064744 2.0992298 1.0473983
-1.5693456 -1.569536 -1.5690299 -1.5702589 1.0473983 2.0992298
1.0473983 1.0473983 2.0992298 2.0992298 2.0992298 2.0992298
-1.5695481 -1.8992299 -1.5674026 -1.5693647 2.0992298 -1.5694921
-1.8992299 2.0992298 -0.8473983 -0.8473983 -1.8992299 -0.8473983
1.0473983 2.0992298 1.0473983 2.0992298 2.0992298 2.0992298
2.0992298 2.0992298 -1.8992299 1.8785384 -0.8473983 2.0992298
2.0992298 -0.8473983 -0.8473983 0.7751633 -0.8473983 2.0992298
2.0992298 2.0992298 1.0473983 -0.58600485 1.0473983 1.0473983
2.0992298 1.0473983 1.0473983 2.0992298 2.0992298 1.0473983
1.0473983 2.0992298 1.0473983 2.0992298 1.0473983 2.0992298
1.0473983 2.0992298 1.0473983 1.0473983 2.0992298 2.0992298
1.0473983 2.0992298 1.0473983 -1.8992299 1.0473983 2.0334866
1.7701507 1.0473983 1.7694519 1.769775 1.7688913 -1.8992299
-1.569536 -1.5695372 -1.569536 -1.569536 -1.5696995 -1.5695186
-1.5690467 -1.5695264 1.769536 -1.8462883 1.7695067 -0.8473983
1.7694399 -1.569536 -1.569536 1.7695383 1.7695336 -1.5715194
-1.569536 -1.569536 -1.569536 -1.569536 -1.569536 -1.569536
-1.5696874 -1.5698067 -1.8992299 -1.5692165 2.0992298 -1.569166
-1.569536 -1.5695343 1.769546 -1.569536 -1.5695347 -1.569536
2.0992298 1.0473983 2.0992298 2.0992298 2.0992298 2.0992298
2.0992298 1.0473983 2.0992298 2.0992298 2.0992298 2.0992298
1.0473983 2.0992298 2.0992298 1.0473983 2.0992298 1.0473983
-1.569624 1.0473983 -1.5695632 1.7695988 -1.5694888 2.0992298
1.0473983 2.0992298 2.0992298 2.0992298 2.0992298 1.0473983
1.769536 -1.56955 1.769536 1.769536 -1.5695614 1.7694762
1.7696633 1.7695371 1.7695498 1.0473983 1.7695274 -1.8992299
1.769525 -1.8992299 1.7694726 1.7696812 1.0473983 1.7694689
-1.569536 -1.569536 1.7695614 -1.569536 1.769536 -1.569546
-1.5697842 -1.5695378 -1.5696855 2.0992298 -1.5695193 1.0473983
-1.569536 -1.569536 -1.569536 -1.569536 -1.569536 -1.569536
-1.569536 -1.569536 1.769536 -1.5695317 -1.569536 1.769536
-1.569536 1.7693458 1.769536 1.769536 -1.569536 1.769536
-1.569536 1.769536 -1.5694485 1.769536 1.769536 -1.569536
1.7692437 1.769536 -1.569536 -1.5695224 -1.569536 1.769536
1.769536 -1.569536 -1.569536 1.769517 -1.569536 -1.5695355
-1.5694686 -1.5689437 -1.5692117 1.0473983 -1.5695393 -1.8992299
1.7695539 -1.5698426 1.7695469 1.7695537 -1.6506557 -0.8473983
-1.569536 -1.569536 1.7695147 -1.5695026 -1.569536 -1.5695868
-1.569536 1.769536 -1.569536 -1.5695895 -1.5695045 1.7695271
-1.569536 1.769536 -1.5694942 -1.5694368 -1.5694928 1.769536
-1.569536 -1.569536 -1.569536 -1.569536 1.769536 -1.569536
-1.569536 -1.569536 -1.569536 -1.569525 -1.569536 1.769536
1.769289 -1.5693271 2.0992298 1.7693253 2.0992298 -1.5695362
-1.569536 1.769536 -1.5695281 1.769536 -1.569536 1.769536
-1.8992299 1.7695849 -1.569495 1.0473983 1.7694697 1.7695497
-1.569536 -1.569536 -1.569536 -1.569536 1.769536 -1.569536
-1.569536 -1.569536 -1.569536 -1.569536 -1.5695319 -1.569536
-1.569536 -1.569536 -1.569536 -1.569536 -1.569536 -1.569536
-1.569536 1.769536 1.769536 1.769536 1.769536 -1.5693307
-1.569536 1.769536 -1.569536 1.7694987 -1.569536 1.769536
-1.569536 -1.569536 -1.569536 -1.569536 -1.5695182 -1.5695329
-1.5695019 -1.569659 -1.569536 1.769536 -1.569553 -1.5695527
1.7720871 1.769587 -1.8992299 -0.8473983 -1.56953 1.7694412
1.769536 -1.569536 1.769536 -1.569536 -1.569536 -1.569536
1.769536 -1.5696114 -1.5694007 -1.569682 1.769536 1.769536
-1.5695665 1.7696602 1.769536 -1.569536 1.769391 -1.569536
-1.569536 -1.5693763 1.7694476 1.7696191 1.7692027 -1.569536
1.0473983 1.7695346 -1.56867 -1.5695288 1.0473983 -1.5697757
-1.5694373 1.0473983 1.0473983 -1.5695205 -1.5694721 -1.5695187
1.769536 -1.569536 1.769536 -1.5695374 1.769536 -1.569536
-0.8473983 1.3853831 2.0992298 1.0473983 1.0473983 -1.6425966
-1.569536 -1.569536 1.769536 -1.569536 1.769536 -1.569536
-1.569536 1.7686552 1.769536 1.769536 1.769536 1.769536
-1.569536 -1.569536 1.769536 1.769536 -1.569536 1.769536
-1.5695331 1.7695322 -1.569536 -1.569535 -1.569536 1.769536
1.0282346 1.0473983 0.52727634 2.025523 1.0473983 2.0992298
1.0473983 -0.7333676 -0.8438039 2.0992298 2.0992298 -1.8992299
1.947595 -0.8473983 1.0473983 -0.8473983 1.9136173 2.0992298
2.0992298 -0.19518495 2.0992298 1.0473983 1.0473983 -0.8473983
1.769536 -1.569536 1.769536 -1.569536 1.769536 -1.5695343
2.6695266 2.6691191 -0.9992299 -0.9992299 0 0
1.9473983 2.99923 1.9473983 1.9473983 0 0
2.99923 2.99923 2.99923 -0.9992299 0 0
1.9473983 2.99923 1.9473983 1.9473983 0 0
2.99923 1.9473983 2.99923 2.99923 0 0
1.9473983 1.9473983 1.9361258 2.99923 0 0
1.9473983 -0.9992299 2.99923 2.99923 0 0
-0.6695368 -0.6697352 -0.9992299 -0.9921499 0 0
0.052601688 -0.670569 -0.9992299 -0.6697576 0 0
0.052601688 1.9473983 1.7688301 0.05807502 0 0
1.9473983 -0.9992299 0.052601688 0.052601688 0 0
1.9473983 0.052601688 -0.9992299 0.052601688 0 0
2.99923 2.99923 1.9473983 1.9473983 0 0
0.052601688 2.9973292 1.9473983 2.99923 0 0
0.052601688 2.99923 0.052601688 -0.9992299 0 0
2.9014025 -0.66946584 1.9473983 -0.66963035 0 0
1.9473983 1.9473983 1.9473983 2.99923 0 0
2.99923 2.99923 1.9473983 2.99923 0 0
2.99923 2.99923 2.99923 2.99923 0 0
0.052601688 2.99923 -0.9992299 -1.0005038 0 0
1.9473983 1.9473983 2.99923 1.9473983 0 0
2.99923 1.9473983 2.99923 2.99923 0 0
-0.9992299 1.9473983 2.99923 1.9473983 0 0
2.99923 -0.9992299 2.99923 -0.7642306 0 0
-0.9998736 2.99923 -0.8264588 0.052601688 0 0
1.9473983 2.99923 2.99923 2.99923 0 0
2.99923 0.052601688 1.9473983 1.9473983 0 0
2.9813364 1.9473983 2.99923 2.99923 0 0
2.99923 1.9473983 2.99923 2.99923 0 0
2.99923 2.99923 2.9319596 1.9473983 0 0
1.9473983 1.9473983 2.99923 2.99923 0 0
2.99923 2.99923 1.9473983 -0.9992299 0 0
-0.67276406 2.669465 -0.66979074 -0.7185827 0 0
2.99923 1.9473983 2.99923 2.99923 0 0
1.9473983 2.99923 1.9473983 1.9473983 0 0
1.9473983 2.99923 2.99923 1.9473983 0 0
1.9473983 1.9473983 1.9473983 -0.9992299 0 0
2.99923 2.99923 1.9473983 -0.9992299 0 0
-0.66986877 -0.9992299 2.669567 0.052601688 0 0
-0.66953623 -0.6695395 -0.66953605 -0.66953605 0 0
-0.66953605 -0.6696121 2.6695333 2.6695366 0 0
-0.9992299 2.99923 2.99923 2.99923 0 0
0.052601688 1.9473983 0.052601688 -0.9992299 0 0
-0.6696865 2.99923 2.6695788 -0.9992299 0 0
-0.66932553 -0.6696016 -0.66953605 -0.6695947 0 0
-0.9992299 -0.9992299 2.6694705 2.6693332 0 0
2.669536 -0.66953605 -0.66953605 -0.66953605 0 0
-0.66953605 2.669536 2.669536 2.669536 0 0
-0.66953605 2.669536 -0.66953605 -0.66953605 0 0
-0.9992299 2.669552 2.6697013 2.8720853 0 0
-0.66962206 2.99923 2.668891 0.052601688 0 0
2.669536 -0.66953605 2.669536 2.669536 0 0
-0.66953605 -0.66953605 2.669536 -0.66953605 0 0
1.9473983 -0.9992299 1.9473983 -0.9992299 0 0
2.669536 -0.66954285 -0.66953605 2.669516 0 0
-0.66953605 -0.66953605 -0.66953605 -0.66953605 0 0
-0.66953605 2.669536 -0.66953605 -0.6695235 0 0
-0.6695049 -0.6697005 2.6696115 -0.66953605 0 0
1.9473983 -0.669419 1.9473983 2.6686718 0 0
2.6697297 1.9473983 -0.9992299 -0.6690253 0 0
2.99923 -0.66930115 2.99923 -0.66977376 0 0
1.9473983 1.9473983 1.9473983 2.99923 0 0
2.6694434 0.052601688 0.73876864 2.6703334 0 0
-0.66953605 2.669536 -0.66953605 -0.66953605 0 0
1.769532 1.7694862 1.0473983 1.7694983 1.0473983 1.769486
-1.569536 -1.5695332 -1.569536 -1.569536 -1.569536 1.7695117
1.769496 1.7692647 -0.8473983 -1.5703484 -1.5697122 2.0992298
1.769536 1.7695284 -1.569536 1.769536 1.7678554 -1.569536
1.0473983 1.0473983 1.0473983 2.0992298 0.5345673 1.0473983
2.0992298 2.0992298 2.0992298 2.0992298 2.0992298 1.0473983
1.769536 -1.5694635 -1.5674825 1.7694259 -1.5695211 1.7696182
2.0992298 2.0992298 2.0992298 1.0473983 2.0738704 1.0473983
2.0992298 1.0473983 2.0992298 -1.8992299 -0.8473983 -1.8992299
1.7695316 1.7695339 1.0473983 -1.5696046 1.7710001 1.0473983
2.0992298 1.0473983 1.0473983 2.0992298 2.0992298 2.0992298
1.0473983 -0.8473983 1.0473983 1.0473983 1.0473983 -1.8992299
1.7710412 1.7757744 -1.5690769 1.0473983 1.7719843 -0.8473983
2.0992298 2.0992298 2.0992298 1.0473983 2.0992298 1.0473983
2.0992298 1.0473983 2.0992298 2.0992298 1.0473983 1.0473983
-1.5635433 -1.5696697 2.0992298 -1.5694457 1.7700744 2.0992298
2.0992298 -1.8992299 2.0992298 1.0473983 2.0992298 1.0473983
2.0992298 2.0992298 -0.8473983 2.0992298 2.0992298 1.0473983
2.0992298 1.0473983 1.0473983 1.0473983 2.0992298 1.0473983
-1.5695357 1.7695365 1.7693859 -1.8992299 1.7696865 -1.8750017
-1.8992299 2.0162249 -1.8992299 1.0473983 -1.8992299 -1.8992299
1.7695037 -1.5695366 1.7695516 0.661106 1.7696471 0.9758116
-1.5695372 1.7695017 -0.8473983 -1.5695691 -1.5695028 1.2089429
-1.569536 -1.569536 -1.569536 1.769536 -1.569536 -1.569536
-0.8473983 1.7694144 -1.8992299 1.7691951 -1.5696028 1.7720027
1.772721 -1.5695289 -1.8992299 -0.8473983 -1.5697402 -1.569629
2.0992298 1.7694025 1.7692788 -1.5693133 1.0473983 -1.5695362
-0.20912927 -1.8992299 1.0473983 1.0473983 2.0992298 2.0992298
0.5249913 1.0473983 2.0992298 1.9642258 2.0747912 0.36536056
2.0992298 -0.8473983 2.0993352 -1.8992299 2.0992298 0.63034993
1.0473983 -1.8992299 1.8451297 -0.8473983 1.9725758 1.0473983
1.0473983 -0.8473983 -1.8992299 -0.8473983 1.0473983 -1.8992299
1.0473983 -0.5692597 -0.8473983 2.0992298 -1.8992299 2.0330288
2.0992298 2.0992298 2.0992298 1.0473983 2.0992298 1.0473983
2.0992298 -0.42162943 1.0473983 1.0473983 2.0992298 0.44298542
-0.8473983 2.0992298 -1.8992299 -1.8992299 -0.8473983 -1.8992299
-0.8473983 2.0992298 1.0473983 2.0285804 1.0473983 1.0473983
1.0473983 -1.5695654 -1.5723587 1.0473983 -1.5695359 1.7694724
-0.8473983 2.0992298 -1.8992299 -1.8992299 1.0473983 2.0992298
2.0992298 1.7695923 1.7696371 -1.5694976 1.0473983 1.7695417
2.0992298 1.0473983 -1.8997703 2.0992298 2.0992298 1.0473983
1.0473983 2.0992298 1.849811 -0.8473983 -1.8992299 1.9914833
-1.8992299 2.0992298 -1.8992299 1.0473983 1.0473983 -0.8473983
2.0992298 2.0992298 1.0473983 1.0473983 2.0992298 2.0992298
1.0473983 1.0473983 2.0992298 1.0473983 1.0473983 1.0473983
-0.44037414 2.0992298 -0.8473983 2.0992298 -0.23237377 2.0992298
2.0992298 2.0992298 1.0473983 1.0473983 2.0992298 1.0473983
1.0473983 1.0473983 1.0473983 2.0992298 1.0473983 1.0473983
-1.8992299 1.0473983 2.0992298 2.0992298 2.0992298 2.0992298
1.0473983 2.0992298 2.0992298 2.0992298 1.0473983 1.0473983
2.0992298 1.0473983 2.0993457 1.0473983 2.0992298 1.0473983
2.0992298 1.0473983 1.0473983 2.0992298 1.870544 2.0992298
2.0992298 1.0473983 2.0992298 2.0992298 2.0992298 1.0473983
2.0992298 -0.8473983 -0.8473983 2.0992298 2.0992298 1.0473983
1.0473983 1.0473983 1.0473983 1.0473983 2.0992298 2.0992298
1.0473983 -1.8992299 1.0473983 2.0992298 1.0473983 -1.8992299
0.528572 2.0992298 1.0473983 1.0473983 -0.8473983 2.0992298
1.0473983 2.0992298 1.0473983 2.0992298 -0.8473983 -0.8473983
-1.5696814 1.769531 -1.5993724 1.7695187 -1.569574 -1.7251688
2.0992298 2.0992298 1.0473983 2.0992298 1.0473983 1.0473983
1.0473983 2.0992298 1.0473983 2.0992298 2.0992298 1.0473983
1.0473983 2.0992298 2.0992298 1.0473983 1.0473983 2.0992298
1.0473983 1.0473983 1.0473983 1.0473983 1.0473983 1.0473983
1.0473983 1.0473983 1.0473983 1.0473983 2.0992298 2.0992298
2.0992298 1.0473983 1.0473983 2.0992298 1.0473983 1.0473983
2.0992298 1.0473983 2.0992298 0.9085765 2.0992298 0.5494101
2.0992298 1.0473983 1.0473983 1.0473983 2.0992298 1.0473983
2.0992298 2.0992298 1.0473983 2.0992298 2.0992298 2.0992298
2.0992298 2.0992298 1.0473983 1.0473983 2.0992298 1.0473983
2.0992298 1.0473983 1.0473983 2.0992298 2.0992298 -1.8992299
1.7695956 1.7698557 -1.5698583 -1.249088 1.7695725 -0.8473983
-1.569536 -1.569536 -1.5695364 -1.5695285 -1.569536 -1.569536
-1.5627751 1.7695634 -1.5694246 1.7695694 -1.7004015 1.769526
1.769536 -1.5695351 -1.569536 -1.569536 -1.5695363 -1.569536
1.7695358 -1.569536 -1.569536 -1.5694354 -1.569536 1.7695363
2.0992298 2.0992298 2.0992298 2.0992298 1.0473983 2.0992298
2.0992298 2.0992298 -1.6684515 2.0992298 1.0473983 2.0992298
1.0473983 2.0992298 2.0992298 1.0473983 1.0473983 2.0992298
-0.8473983 1.0473983 -0.63703847 2.0992298 -0.73605067 2.0992298
2.0992298 1.0473983 1.0473983 1.0473983 1.0473983 1.0473983
1.7695885 1.7695038 -1.569044 1.0473983 1.769495 -1.8992299
1.0473983 1.0473983 1.0473983 2.0992298 -1.8992299 -1.7721157
-1.569536 -1.569536 -1.5659068 -1.5696859 -1.569536 -1.5694897
1.7695191 -1.7961134 1.7694057 1.7694933 1.7698027 -0.8473983
1.7696073 1.7693915 -1.8992299 -0.8473983 1.7695156 1.7695005
-1.569536 -1.56953 -1.569536 -1.569536 -1.5694828 -1.569536
-1.569523 -1.569536 -1.569536 -1.569536 1.769536 -1.569536
1.769536 -1.5695238 -1.569536 1.769536 1.769536 1.769536
-1.569536 1.7695647 1.436872 -1.5695865 1.7713672 1.7695007
1.769536 -1.569536 -1.569536 -1.5695075 -1.569536 -1.569536
-1.569536 1.769536 1.769536 1.7695324 1.769536 1.7695286
-1.755805 1.0473983 -1.8992299 -0.6534865 2.0598667 1.0473983
-1.5702815 1.769536 -1.5695041 1.769536 1.769536 -1.568871
-1.5687306 2.0992298 -1.5693415 1.7693822 1.7654587 1.0473983
1.7710571 -1.569411 -1.5696403 -0.8473983 1.7697573 -0.8473983
-1.569536 -1.5695555 -1.569536 -1.569536 -1.5695629 -1.5696969
-1.569536 1.769536 1.7695361 -1.569536 1.7693226 -1.569536
-1.5694997 1.7693723 -1.569536 -1.5695273 -1.5697544 -1.569536
1.769536 -1.569536 -1.569536 -1.569536 -1.569536 -1.569536
-1.569536 -1.569536 1.769536 -1.5695316 1.7693646 -1.569536
1.7693391 -1.5697865 1.769532 -1.569536 1.769536 -1.569536
-1.569536 -1.5695299 1.769536 1.769536 1.769536 1.769536
-1.569536 -1.569536 1.769536 -1.569536 -1.569536 1.769536
-1.569536 1.769536 1.769536 1.769536 1.769536 1.769536
-1.569536 -1.569004 -1.569536 1.769536 -1.569536 1.769536
-1.569536 -1.569536 -1.569536 -1.569536 -1.569536 -1.569536
-1.569536 -1.569536 -1.569536 -1.5695329 -1.569536 -1.569536
1.7694049 1.769536 -1.5695112 1.769536 1.769506 -1.569536
-1.5695428 1.769536 -1.5692751 -1.5696487 1.769536 1.7695353
1.7694526 -1.569536 -1.569536 -1.5693653 -1.569536 -1.569536
1.769551 1.0473983 1.0473983 -1.5695071 1.7689967 1.7691035
-1.569536 -1.569536 -1.569536 -1.569536 -1.5695162 -1.569536
1.769536 1.769536 -1.569536 1.769536 1.769536 -1.569536
1.7695379 -1.569536 1.7695625 1.769536 1.7702687 -1.569536
1.769536 1.769536 1.769536 -1.569536 1.769536 -1.569536
1.7695401 -1.569536 1.769536 -1.569536 -1.569536 -1.569536
2.0992298 -1.8967949 -1.8992299 -1.8992299 1.0473983 -0.8473983
-1.569536 1.769536 -1.569536 -1.569536 1.7694943 -1.569536
1.769536 -1.5695391 1.769536 1.7694883 -1.569536 1.769536
-1.569536 -1.569536 -1.569536 1.7695143 -1.569536 -1.569536
-1.569536 1.7695202 -1.569536 1.769536 -1.569536 -1.5695326
-1.569536 -1.569536 -1.569536 -1.569536 -1.569536 -1.569536
-1.5693495 -1.569536 1.7696785 1.7695982 -1.569536 1.769536
1.769536 -1.5695361 1.7695361 -1.569536 1.769536 1.769536
1.769881 1.7695479 -0.8473983 2.0992298 1.7707274 1.7691238
2.0992298 1.7686237 2.0992298 -1.5700219 -1.5692768 1.7696967
1.7693636 -1.8992299 1.7695098 -0.8473983 1.7695222 1.7700526
-1.569536 1.769536 1.769536 -1.569536 1.769536 -1.569536
-0.66953605 -0.6695359 -0.66959316 -0.6695361 0 0
2.6694765 -0.669535 -0.66951835 2.669536 0 0
2.99923 1.9473983 0.052601688 0.052601688 0 0
2.99923 2.99923 2.99923 1.9473983 0 0
1.9473983 1.9473983 2.99923 1.9473983 0 0
0.052601688 1.9473983 0.052601688 -0.9992299 0 0
1.9473983 2.99923 2.99923 0.052601688 0 0
-0.6694991 -0.66953605 -0.66953605 -0.6695364 0 0
-0.4435666 2.6702695 -0.6662117 -0.6793846 0 0
3.0001535 0.052601688 0.26646784 2.99923 0 0
1.9473983 -0.9992299 -0.9992299 0.052601688 0 0
1.9473983 1.9473983 1.9473983 -0.9992299 0 0
1.9473983 1.9473983 2.99923 2.99923 0 0
2.99923 -0.9992299 -0.9992299 -0.9992299 0 0
0.052601688 -0.9992299 1.9473983 1.9473983 0 0
1.9473983 -0.6703066 -0.6693624 1.9473983 0 0
0.052601688 1.9473983 2.9761357 2.99923 0 0
1.9473983 1.9473983 0.6273714 1.9473983 0 0
2.99923 1.9473983 2.99923 2.99923 0 0
-0.9992299 2.99923 0.052601688 1.9473983 0 0
2.99923 1.9473983 2.99923 2.99923 0 0
1.9473983 2.7716796 1.9473983 0.052601688 0 0
2.99923 1.9473983 2.99923 -0.9992299 0 0
2.99923 0.052601688 1.9473983 0.052601688 0 0
-0.7910135 0.052601688 2.99923 -0.9992299 0 0
2.99923 2.99923 0.559869 2.99923 0 0
2.99923 2.99923 2.99923 1.9473983 0 0
2.99923 0.052601688 -0.9992299 0.052601688 0 0
2.99923 1.9473983 1.9473983 1.9473983 0 0
1.8950795 0.052601688 2.99923 2.99923 0 0
2.99923 -0.9992299 1.9473983 2.99923 0 0
2.99923 -0.9992299 1.9473983 -0.9992299 0 0
2.6674528 -0.66953844 2.99923 0.052601688 0 0
-0.6693247 1.9473983 1.9473983 -0.6701392 0 0
2.99923 2.99923 2.99923 2.99923 0 0
2.99923 -0.9992299 1.9473983 1.9473983 0 0
1.9473983 1.9473983 1.9473983 1.9473983 0 0
0.052601688 2.99923 1.9473983 2.99923 0 0
0.052601688 2.99923 1.9473983 0.052601688 0 0
-0.66953605 -0.6695292 2.6697505 -0.66955614 0 0
-0.66953605 2.669536 -0.6695381 2.669536 0 0
2.6695232 -0.66953933 -0.669536 -0.66953605 0 0
2.99923 -0.9992332 2.99923 0.052601688 0 0
0.052601688 2.99923 -0.9992299 0.052601688 0 0
2.99923 -0.9992299 0.052601688 2.99923 0 0
-0.66803026 0.052601688 -0.9992299 2.6686053 0 0
1.9473983 2.9648778 -0.9992299 2.99923 0 0
-0.66953605 2.669536 -0.66953605 -0.66953605 0 0
-0.66953605 -0.66953605 -0.66953605 -0.66953605 0 0
2.669526 -0.66953605 -0.66953605 2.669536 0 0
2.669547 -0.66952914 0.052601688 0.052601688 0 0
-0.66954756 2.669536 -0.6694272 -0.66935486 0 0
-0.669512 -0.66946226 1.9473983 -0.9992299 0 0
2.99923 -0.6703747 2.99923 -0.6697065 0 0
2.99923 0.052601688 1.9473983 0.052601688 0 0
-0.66953605 -0.66953737 2.669536 -0.66953605 0 0
-0.6695348 2.6695418 2.6695218 -0.66953635 0 0
-0.66954195 -0.66952515 2.6695232 -0.66953605 0 0
1.9473983 2.9999454 2.99923 2.99923 0 0
2.99923 1.9473983 2.99923 2.99923 0 0
-0.9992299 2.99923 -0.9992299 -0.9992299 0 0
1.9473983 1.9473983 1.9473983 2.99923 0 0
0.052601688 1.9473983 2.99923 0.052601688 0 0
-0.6694335 -0.66425973 2.669585 -0.6695391 0 0
-1.569536 1.769536 -1.569536 -1.569536 1.7694149 -1.569536
-1.569536 -1.5694678 -1.569536 -1.569536 -1.569536 -1.569536
-1.569536 -1.569536 -1.5695736 -1.569536 -1.569536 -1.5695361
-1.569536 -1.569536 -1.569536 -1.569536 1.769536 -1.569536
1.769515 1.769536 -1.5695386 1.769536 -1.5695882 -1.5695173
2.0394866 -1.5694773 -1.8992299 1.769623 -1.5695336 1.7698717
-1.569536 1.769536 -1.569536 -1.569457 1.769536 -1.5695295
2.0992298 2.0992298 2.0992298 1.0346333 -0.8473983 2.0992298
1.0473983 1.0473983 -1.7612517 1.0473983 -0.8473983 1.0473983
2.0992298 1.0473983 -0.8473983 2.0738423 1.0473983 2.0992298
2.0992298 2.0992298 2.0992298 2.0992298 1.0473983 1.0473983
1.0473983 2.0992298 1.0473983 1.0473983 1.0473983 1.0473983
1.0473983 1.0473983 1.0473983 1.0473983 2.0992298 2.0992298
2.0992298 -0.8473983 1.0473983 1.0473983 2.0992298 -1.865245
2.0992298 1.0473983 2.0992298 2.0992298 2.0992298 1.0473983
1.0473983 1.0473983 2.0992298 2.0992298 1.0473983 -1.8992299
-0.8473983 1.0473983 1.0473983 2.0992298 -1.8593583 -1.8992299
2.0992298 1.0473983 1.0473983 -0.8473983 1.0473983 2.0992298
1.0473983 1.0473983 -0.8473983 -0.8473983 -0.8473983 2.0946927
1.7695361 -1.5695347 1.769536 -1.569535 1.769536 -1.5695362
2.0992298 2.0992298 2.0992298 -1.8992299 2.0992298 2.0992298
1.0473983 1.0473983 2.0992298 -1.8992299 1.0473983 2.0992298
-1.5695376 -1.569536 1.769536 -1.569536 -1.569536 1.7695372
-1.5695359 -1.5695417 -1.569536 -1.5695362 1.769536 -1.569536
-1.569536 1.7682074 1.769536 -1.569536 1.769536 1.7695374
-0.9944356 1.6581023 1.7692693 -1.5703615 1.7715936 -1.5698316
-0.9747917 1.770289 -1.5640061 -1.6338449 1.7690532 1.7680683
-0.8473983 1.0473983 -1.8992299 1.0473983 -1.8992299 -0.8085627
1.0473983 1.0473983 1.0473983 2.0992298 0.6260695 1.0473983
2.0992298 1.0473983 2.0992298 2.0992298 1.0141441 -1.8992299
-0.36127234 2.0992298 -1.8992299 -0.8473983 2.0992298 2.0992298
1.0473983 1.0473983 1.0473983 1.0473983 1.0473983 2.0992298
2.0992298 2.0992298 2.0992298 -0.8473983 1.9661857 1.0473983
2.0992298 2.0992298 2.0992298 -1.9005525 1.0473983 1.0473983
2.0992298 1.0473983 2.0992298 1.0473983 1.0473983 2.0992298
2.0992298 -1.8992299 -1.8992299 -0.8473983 -1.752839 2.0992298
1.0473983 -1.6880479 0.54322296 -1.8992299 2.0992298 -0.8473983
1.7689185 1.0473983 1.6248746 -1.5737965 -1.5668309 2.0992298
1.0473983 2.0992298 2.0992298 2.0992298 2.0992298 -0.8473983
2.0992298 -1.5624678 -1.5698423 2.0179915 -1.5654051 -1.5661424
1.0473983 1.0473983 -0.57293564 2.0992298 2.0992298 1.0473983
-1.8992299 1.0473983 -0.42070758 2.0992298 2.1004944 2.0992298
-0.8473983 -0.8473983 1.0473983 1.0473983 1.0473983 -0.8473983
2.0992298 1.0473983 2.0992298 1.0473983 -0.27358323 2.0992298
2.0992298 1.0473983 -0.8473983 1.0473983 2.0992298 2.0992298
-1.8992299 -1.8992299 -0.2878685 1.0473983 1.9858394 1.0473983
2.0992298 2.0992298 1.0473983 2.0992298 2.0992298 2.0992298
-1.8992299 1.0473983 1.0473983 1.0473983 -0.5371667 2.0992298
2.0992298 1.0473983 1.0473983 1.0473983 2.0992298 1.0473983
2.0992298 2.0992298 1.0473983 2.0992298 2.0992298 -1.8992299
2.0992298 2.0992298 2.0992298 2.0992298 2.0992298 2.0992298
2.0992298 2.0992298 2.0992298 2.0992298 2.0992298 -0.8473983
1.0473983 -1.8992299 1.0473983 2.0992298 1.0473983 1.0473983
2.0992298 1.0473983 2.0992298 -0.48634166 1.0473983 2.0992298
2.0992298 1.0473983 2.0992298 -1.8992299 1.0473983 0.7552131
2.0992298 -1.8992299 1.0473983 2.0992298 0.5711093 -1.8992299
1.9509284 2.0992298 -0.8473983 2.0992298 2.0992298 -0.8473983
-1.8992299 1.0473983 -0.8473983 -1.8968 1.0473983 2.0992298
-1.5681603 -1.5695562 -1.5693004 -1.5683429 -1.8992299 -1.8992299
2.0992298 2.0992298 1.0473983 2.0992298 1.0473983 1.0473983
-1.5689051 -0.8473983 -1.5696955 -1.5693437 1.0473983 -1.5692773
-0.8473983 2.0992298 -0.8473983 -0.8473983 -0.8473983 2.0992298
2.0992298 1.0473983 2.0992298 1.0473983 2.0992298 2.0992298
1.0473983 1.0473983 -0.8473983 2.0992298 -1.8992299 1.0473983
1.0473983 -1.8992299 0.4346395 1.0473983 -0.8473983 1.0473983
2.0992298 1.0473983 1.0473983 -0.8473983 2.0992298 2.0992298
2.0992298 1.0473983 2.0992298 2.0992298 2.0992298 1.0473983
1.0473983 1.0473983 2.0992298 2.0992298 2.0992298 2.0992298
1.0473983 2.0992298 2.0992298 -0.8473983 1.0473983 1.0473983
1.0473983 2.0992298 1.0473983 1.0473983 2.0992298 1.0473983
1.0473983 1.0473983 2.0992298 1.0473983 1.7512614 -0.8473983
-1.569536 -1.5695416 1.7695103 -1.569536 -1.5694351 -1.5695213
-1.5695592 -1.5695264 1.769536 -0.8473983 -1.5695753 -1.1177928
-1.569536 -1.569536 -1.569536 -1.5695064 -1.5695124 -1.5696424
-1.569536 -1.569536 -1.569536 -1.569536 -1.569536 -1.569536
-1.5696361 -1.5690775 -0.8473983 -1.5695872 1.0473983 -1.5691185
-1.569536 -1.5695095 1.7693726 -1.569536 1.7695396 -1.569536
1.0473983 1.0473983 2.0992298 2.0992298 1.0473983 1.0473983
1.0473983 0.9997609 2.0992298 2.0992298 2.0992298 2.0992298
1.0473983 1.0473983 2.0992298 2.0992298 2.0992298 2.0992298
-0.8473983 1.0473983 -0.8473983 1.0473983 -0.8473983 -1.8930807
2.0992298 -0.8473983 2.0992298 2.0992298 2.0992298 2.0992298
2.0992298 -0.8473983 1.0473983 1.0473983 -1.8992299 2.0992298
1.0473983 2.0992298 2.0992298 2.0992298 2.0992298 -0.8473983
-1.5690657 -0.8473983 1.7698371 1.769231 1.0473983 1.7688956
-1.5697222 -1.5698464 1.7695897 -1.8134515 1.7694786 -0.8473983
-1.5686402 1.7694762 1.7688817 2.0992298 -1.5693035 1.2275556
-1.569536 -1.569536 -1.569536 -1.569536 -1.569536 -1.569536
-1.569536 1.769536 -1.569536 -1.5695081 -1.569536 -1.569536
-1.569536 -1.569536 -1.569536 -1.569536 -1.569536 -1.569536
-1.569536 -1.569536 -1.569536 -1.569536 -1.5695293 -1.569536
1.7695308 1.769536 -1.569536 -1.569536 -1.569536 1.769536
1.769536 -1.569536 -1.569536 1.769536 -1.569536 -1.5695335
-0.8473983 -0.8473983 0.5025802 2.0992298 -1.8992299 -0.8473983
1.7695419 -1.5695186 1.7695494 1.7695858 -1.8992299 -0.8473983
-1.5693178 1.7696676 2.0992298 -1.5694671 -1.5696443 -0.8473983
-1.5695262 1.7694929 -1.5695369 -1.5695529 -0.79122794 2.0992298
-0.8473983 1.0473983 -0.8473983 -1.8992299 -0.8473983 1.0473983
-1.5695268 -1.569536 -1.569536 -1.569536 1.7697954 -1.5693172
-1.569536 -1.5694478 -1.5706439 1.769536 -1.5689313 1.7696297
1.7699299 -1.5695124 1.0473983 1.7695142 1.0473983 -1.569581
-1.569536 1.7695351 1.769536 1.769536 -1.569536 1.769536
-0.8473983 2.0992298 -1.1495615 1.0473983 1.0473983 1.0473983
-1.569536 -1.569536 -1.569536 -1.569536 1.769536 -1.569536
-1.569536 -1.569536 -1.569536 -1.569536 -1.5695297 -1.569536
-1.569536 -1.569536 -1.569536 -1.569536 -1.569536 -1.569536
-1.569536 1.769536 1.769536 1.769536 1.769536 -1.569536
-1.569536 1.769536 -1.569536 1.7694317 -1.569536 1.7695322
-1.569536 -1.569536 -1.569536 -1.569536 -1.569536 -1.569536
1.769536 -1.5695281 -1.569536 1.769536 -1.5696728 -1.5693047
1.7693617 1.7695228 -1.8992299 -1.8022487 -1.5695031 1.7694705
1.7694201 -1.569536 1.769536 -1.569536 -1.569478 -1.5697781
1.769536 -1.5695558 -1.569513 -1.5694613 1.769536 1.769536
-1.5695148 -0.8473983 1.7695892 -1.569601 1.0473983 -1.5695902
-1.5694662 -1.5692513 1.0473983 2.0992298 -1.569509 -1.5695335
2.0992298 1.7696924 -1.5695467 -1.5707757 2.0992298 -1.5656819
-1.5684144 2.0992298 1.0473983 1.769438 -1.5698586 -1.5691686
1.769536 -1.569536 1.769536 -1.5695391 1.769536 -1.569536
-0.8473983 2.0992298 1.0473983 1.0473983 1.0473983 -1.8992299
-1.5695324 -1.569536 1.769536 -1.569536 1.7695322 -1.569536
-1.569536 1.7691882 1.7695335 1.769536 1.769536 1.769536
-1.569536 -1.569536 1.769536 1.769536 -1.569536 1.769536
-1.5695521 1.769536 -1.569536 1.769478 -1.5695369 1.769536
1.0473983 1.0473983 2.0992298 1.0473983 2.0992298 1.0473983
2.0992298 1.0473983 -1.8994373 1.0473983 2.0992298 -1.8992299
2.0992298 -0.81676006 1.0473983 -1.8992299 1.0473983 2.0992298
1.0473983 -1.8992299 1.0473983 1.0473983 2.0992298 -0.8473983
-1.5694947 -0.99996185 1.7696447 -1.569599 1.7697972 -1.5695422
2.6695302 2.6694427 0.052601688 1.6081598 0 0
1.9473983 2.99923 1.9473983 1.9473983 0 0
2.99923 1.9473983 2.99923 0.64509493 0 0
2.99923 1.9473983 2.99923 2.99923 0 0
2.99923 1.9473983 2.99923 2.99923 0 0
2.99923 1.9473983 0.052601688 2.99923 0 0
2.99923 0.052601688 1.9473983 2.99923 0 0
2.3694906 1.9167852 0.052601688 1.9473983 0 0
0.052601688 -0.6741438 0.052601688 -0.6695212 0 0
-0.9992299 1.9473983 1.9473983 1.9473983 0 0
2.99923 -0.9992299 -0.9992299 -0.9992299 0 0
1.9473983 -0.9992299 0.052601688 -0.9992299 0 0
1.9473983 0.052601688 1.9473983 0.052601688 0 0
0.052601688 -0.9992299 1.9473983 1.8166683 0 0
0.052601688 1.9473983 2.99923 0.052601688 0 0
0.68736327 -0.6693606 2.99923 -0.66926044 0 0
2.99923 2.99923 2.9994364 0.32836372 0 0
2.99923 1.9473983 2.99923 2.99923 0 0
2.99923 2.99923 1.9473983 2.99923 0 0
0.052601688 2.99923 1.9473983 1.9473983 0 0
1.9473983 1.6270009 2.99923 2.99923 0 0
2.99923 0.052601688 1.9473983 2.99923 0 0
0.052601688 2.99923 1.9473983 2.99923 0 0
1.9473983 -0.9992299 2.99923 0.052601688 0 0
0.056291547 2.99923 -0.9992299 0.052601688 0 0
2.99923 2.99923 1.9473983 1.9473983 0 0
2.99923 -0.9992299 1.9473983 1.9473983 0 0
-0.9992299 1.9473983 2.99923 1.9473983 0 0
1.9473983 2.99923 2.99923 2.99923 0 0
1.2904396 1.9473983 -0.9992299 -0.9992299 0 0
2.99923 1.9473983 2.99923 2.99923 0 0
2.99923 1.9473983 2.99923 0.052601688 0 0
-0.789983 2.6695323 -0.66954464 -0.7602682 0 0
2.99923 2.99923 -0.9992299 2.99923 0 0
2.99923 2.99923 2.99923 1.9473983 0 0
2.99923 2.99923 2.99923 2.99923 0 0
1.9473983 1.9473983 1.9473983 -0.9992299 0 0
1.9473983 2.99923 1.5124168 0.052601688 0 0
-0.66933894 1.9473983 2.6695573 -0.7135781 0 0
-0.6695362 -0.6695603 -0.66953605 -0.66953605 0 0
-0.669536 -0.66953295 -0.37191132 -0.84682393 0 0
-0.9992299 2.99923 2.99923 2.99923 0 0
-0.9992299 2.99923 0.052601688 0.052601688 0 0
0.25238857 2.99923 2.99923 2.99923 0 0
-0.9992299 -0.6690739 -0.66941553 0.052601688 0 0
-0.9992299 0.052601688 1.9473983 2.99923 0 0
2.669536 -0.66953605 -0.6695446 -0.66951454 0 0
-0.66953605 2.669536 2.669536 2.669536 0 0
-0.66953605 2.669536 -0.66953605 -0.66953605 0 0
-0.9992299 2.6695044 2.6692634 2.99923 0 0
-0.66969424 1.9473983 2.6703105 0.052601688 0 0
-0.9992299 -0.6692856 2.6700945 1.9473983 0 0
-0.6704933 -0.66950434 2.99923 -0.9992299 0 0
1.9473983 0.052601688 2.99923 -0.9992299 0 0
2.6695507 -0.7156624 0.052601688 2.6695774 0 0
-0.66953605 -0.66953605 -0.66953605 2.669536 0 0
-0.66953605 2.669536 -0.66953605 -0.66953605 0 0
2.99923 -0.66937596 2.99923 -0.6694956 0 0
2.99923 -0.9992299 1.9473983 2.99923 0 0
2.667666 1.9473983 0.052601688 2.671438 0 0
2.99923 -0.66758794 2.99923 -0.6676894 0 0
1.9473983 1.9473983 1.9473983 2.99923 0 0
1.9473983 2.99923 2.99923 2.99923 0 0
-0.6695345 2.6695576 -0.66953653 -0.66953605 0 0
1.7695265 1.7694497 2.0992298 1.7693546 2.0992298 1.76963
-1.569536 1.769536 -1.5697868 -1.5696073 -1.5695348 1.769536
1.7695267 1.7696447 -0.8473983 -1.5702915 -1.569459 2.0992298
1.769536 -1.569536 -1.569536 1.769536 -1.569536 -1.569536
1.0473983 1.0473983 2.0992298 1.0473983 1.0473983 1.0473983
2.0992298 2.0992298 1.0473983 1.0473983 1.0473983 1.0473983
1.7492722 1.7696416 2.0992298 1.7696414 -1.569405 2.0992298
1.0473983 2.0992298 2.0992298 1.0473983 1.0473983 1.0473983
2.0992298 1.0473983 2.0992298 -1.8992299 2.0992298 -1.8969016
1.0473983 2.0992298 2.0992298 -0.8473983 2.0992298 1.0473983
1.0473983 2.0992298 1.0473983 2.0992298 1.0473983 1.0473983
2.0992298 1.8778687 1.0473983 1.0473983 2.0992298 -1.8992299
1.7704325 1.7694792 1.7695706 2.0992298 1.770339 -0.8473983
2.0992298 1.0473983 2.0992298 2.0992298 2.0992298 2.0992298
1.0473983 2.0992298 1.0473983 2.0992298 2.0992298 1.0473983
1.7722619 1.769993 2.0992298 -1.5651991 1.7802516 1.0473983
2.0992298 -1.8992299 2.0992298 1.0473983 1.0473983 1.0473983
1.0473983 2.0992298 -0.8473983 -1.8992299 2.0992298 1.0473983
1.0473983 1.0473983 2.0992298 2.0992298 -0.4534342 2.0992298
1.8083203 1.0473983 2.0992298 -0.8473983 2.0992298 -1.8806102
-0.8473983 0.6945727 -1.8992299 2.0992298 -0.8473983 -0.8473983
1.0473983 -0.8473983 2.0992298 2.0992298 1.0473983 2.0915723
2.0956285 1.0473983 -1.8992299 -1.8992299 -1.8992299 2.0992298
1.7695048 -1.5694515 -1.569536 1.769536 -1.569536 -1.569536
-0.8473983 1.7696117 -0.8473983 1.7693692 -1.5698271 1.7694753
-1.8497145 -1.5682282 -0.8473983 -0.8473983 -1.5695734 -1.5692687
2.0635962 1.7695534 -1.5693982 -1.5695677 2.0992298 -1.5696206
-1.7956203 -0.4391551 2.0992298 1.0473983 1.0473983 2.0992298
0.6574647 2.0992298 0.7440567 1.0473983 1.0473983 1.0473983
1.0473983 -1.8992299 1.0473983 -0.8473983 1.0473983 1.0473983
2.0992298 -1.8992299 2.0992298 1.0473983 0.371625 2.0992298
1.0473983 -0.8473983 -1.8992299 -0.8473983 2.0992298 -0.8201829
1.0473983 1.0473983 2.0992298 1.0473983 -0.72786814 2.0992298
2.0992298 1.0473983 2.0992298 2.0992298 1.0473983 2.0063806
1.0473983 -0.8473983 2.0992298 -0.8473983 2.0992298 1.0473983
-1.8992299 1.0473983 -1.8992299 1.0473983 -1.8992299 -0.8473983
-0.8473983 1.0473983 2.0992298 -1.8992299 2.0992298 -1.8992299
1.0473983 -1.5694802 1.7695314 2.0992298 -1.569452 1.7699649
-0.8473983 1.0473983 -1.8992299 -1.8992299 1.0473983 1.0473983
2.0992298 1.7686758 1.7693694 -1.5702052 2.0992298 -1.5690169
1.0473983 2.0992298 -0.8473983 1.0473983 1.0473983 1.0473983
1.0473983 1.0473983 1.8606112 -1.9005251 -0.8473983 -0.8473983
-1.880125 1.0473983 -1.8992299 1.0473983 1.0473983 -1.8992299
0.9279408 2.0992298 2.0992298 1.0473983 1.0473983 2.0992298
1.0473983 1.0473983 1.0473983 1.0473983 2.0992298 2.0992298
2.0992298 2.0992298 -1.8992299 2.0992298 1.0473983 1.0473983
1.0473983 2.0992298 2.0992298 1.0473983 1.0473983 1.0473983
2.0992298 1.0473983 2.0992298 2.0992298 2.0992298 2.0992298
2.0361583 2.0992298 2.0992298 2.0992298 2.0992298 1.0473983
2.0992298 -0.8473983 1.0473983 2.0992298 1.0473983 0.8230064
2.0992298 1.0473983 1.0473983 2.0992298 1.0473983 2.0992298
1.0473983 2.0992298 1.0473983 2.0992298 -1.8992299 1.0473983
2.0992298 2.0992298 -1.9003708 -1.7017679 2.0992298 0.6584736
0.674163 -0.8473983 -1.8992299 1.0473983 2.0992298 2.0992298
2.0992298 1.0473983 1.0473983 2.0992298 1.0473983 2.0992298
1.0473983 -1.8992299 1.0473983 2.0992298 1.0473983 -1.8992299
-0.7794051 1.0473983 1.0473983 2.0992298 -0.8473983 1.0473983
2.0992298 1.0473983 2.0992298 2.0992298 -1.8992299 -1.8992299
-1.5695686 1.7695525 -1.1226795 1.7695308 -1.5695105 -1.5101075
1.0473983 2.0992298 1.0473983 1.0473983 1.0473983 1.0473983
-1.8992299 1.0473983 2.0992298 1.0473983 2.0992298 2.0992298
1.0473983 1.0473983 2.0992298 1.0473983 1.0473983 1.0473983
2.0992298 1.0473983 2.0992298 1.0473983 2.0992298 2.0992298
0.97079456 1.0473983 2.0992298 2.0992298 2.0992298 2.0992298
1.0473983 1.0473983 2.0992298 2.0992298 1.0473983 2.0992298
2.0992298 2.0992298 1.0473983 -1.8992299 2.0992298 -1.8992299
2.0992298 1.0473983 1.0473983 2.0992298 2.0992298 2.0992298
1.0473983 2.0992298 1.0473983 2.0992298 -1.8992299 2.0992298
-1.8992299 2.0997756 1.0473983 2.0992298 1.0473983 2.0992298
1.0473983 2.0992298 2.0992298 2.0992298 2.0992298 1.0473983
1.7695718 1.7695937 1.7700255 1.0473983 1.7695509 -0.8473983
-1.569536 -1.569536 -1.5695374 -1.5694888 -1.569536 -1.569536
-1.4657102 1.7695876 -1.5695615 -1.5695777 -1.5605304 1.7695601
1.769536 -1.5695486 -1.569536 -1.569536 -1.5695364 -1.569536
-1.5646986 -1.5695388 -1.569537 -1.5695243 -1.5695322 -1.5813036
2.0992298 1.0473983 -1.8992299 2.0992298 2.0992298 2.0992298
1.0473983 1.0473983 2.0992298 2.0992298 -0.8473983 2.0992298
1.0473983 1.0473983 1.0473983 2.0992298 2.0992298 1.0473983
-0.61305785 2.0992298 0.5163862 1.0473983 1.0473983 1.0473983
1.0473983 1.0473983 1.0473983 1.0473983 1.0473983 1.0473983
1.0473983 2.0992298 -0.8473983 1.0473983 2.0992298 1.0473983
1.0473983 1.0473983 1.0473983 -1.8992299 -1.8992299 -1.8992299
-1.569632 -1.5736318 2.0992298 -1.5697253 -1.5680523 -0.8473983
1.7731104 1.0473983 1.7695793 1.7695551 1.7693216 2.0992298
1.0101484 1.0473983 -1.8992299 -0.8473983 1.0473983 1.0473983
-1.569537 1.769536 1.7694422 -1.569536 -1.5695664 -1.569536
1.7693322 1.7694705 -1.569536 -1.569536 1.769536 -1.5695578
1.769536 -1.5694722 -1.569536 -1.569536 1.7695309 -1.569536
-1.5695366 1.769393 -1.6103294 -1.5694977 -1.5312822 1.7693008
1.769536 -1.569536 -1.569536 -1.569536 -1.569536 -1.569536
-1.569536 1.7695343 -1.569536 -1.569536 -1.569536 -1.569536
0.41251135 1.0473983 -0.8473983 1.0473983 2.0385625 1.0473983
1.7695229 1.7699137 -0.8473983 1.7696579 1.7695253 0.5707467
-1.8831408 1.0473983 2.0992298 2.0992298 2.1005378 2.0992298
1.7609113 1.7690128 -1.5845399 1.0473983 1.7701797 -0.8473983
-1.8992299 -0.8473983 -1.6993697 -0.8473983 2.0992298 -0.8473983
-1.569536 1.7697291 -1.5709796 -1.569536 1.769536 -1.5733575
2.0992298 1.7695328 -1.5631396 1.7692968 -0.8473983 -1.5695417
2.0992298 1.7721148 -1.571412 -1.5680315 1.7711155 -1.8992299
-1.569536 -1.569536 1.769536 -1.5694861 1.769536 -1.5695255
1.0473983 -0.8473983 2.0992298 0.9915152 1.0473983 -1.8992299
-1.569536 1.7695298 1.7695284 -1.569536 -1.5695126 -1.569536
-1.569536 -1.5695257 1.769536 -1.5695453 -1.569546 1.769536
-1.569536 -1.569536 -1.569536 -1.569536 -1.5693675 -1.569536
-1.569536 1.769536 -1.569536 1.769536 -1.569536 1.769536
-1.569536 -1.569536 -1.569536 -1.569536 -1.569536 -1.569536
-1.569536 -1.569536 -1.569536 -1.5695256 -1.569536 -1.569536
1.7695205 1.7691594 1.7695262 1.769536 1.7695329 -1.569536
-1.8992299 1.7695105 -0.25129533 -1.5690039 1.7692564 -1.5692762
1.7691786 -1.5691708 -1.5696859 1.7699404 -0.8473983 -1.8992299
1.0473983 1.0473983 2.0992298 -1.8992299 2.0992298 2.0992298
-1.569536 -1.569536 -1.569536 1.769536 -1.5693209 -1.569536
-0.8473983 1.7686446 -1.5696542 2.0992298 1.7672434 1.7776929
1.7682226 -1.5696033 2.0992298 1.7695689 2.0992298 -1.5694208
1.7694681 1.7694552 2.0992298 -1.5691524 2.0992298 -1.5694621
1.7695377 -1.5791483 1.7695441 -0.8473983 -1.5695599 -1.5695312
2.0992298 1.0473983 -0.8473983 -0.67698056 2.0992298 -0.8473983
-1.569536 1.769536 -1.569536 -1.569536 1.769536 -1.569536
1.769536 -1.5695364 1.769536 1.7695339 -1.569546 1.769536
-1.569536 -1.569536 -1.569536 1.769536 -1.569536 -1.5695279
-1.569536 -1.569443 -1.569536 1.769536 -1.569536 -1.569536
-1.5694809 1.769536 -1.569536 -1.569536 -1.569536 -1.569536
1.7700298 -1.569536 1.769577 1.7694414 -1.569536 1.769536
1.769536 -1.5700128 1.7704961 -1.5668842 1.769536 1.7695361
1.7665052 1.7686803 -0.8473983 2.0992298 1.7700775 1.7695135
2.0992298 1.7705476 2.0992298 1.7707257 1.7711207 1.7702181
2.0992298 2.0992298 1.0473983 2.0992298 2.0992298 2.0992298
-0.8473983 1.7695372 1.7695382 -0.8473983 1.7695842 -1.5695372
-0.66953605 -0.6695362 -0.6695597 -0.66953605 0 0
1.9473983 -0.6696116 -0.9992299 2.6695278 0 0
1.9473983 1.9473983 0.052601688 -0.9992299 0 0
1.9473983 2.9607296 1.9473983 2.99923 0 0
2.99923 1.9473983 1.762367 1.9473983 0 0
0.052601688 2.99923 -0.9992299 -0.9992299 0 0
1.9473983 2.99923 2.99923 0.052601688 0 0
2.669575 -0.6695348 -0.66953605 -0.6695304 0 0
-0.6695319 2.6695356 -0.6694848 -0.6695249 0 0
2.99923 -0.9992299 1.9473983 1.9473983 0 0
1.9473983 1.9473983 -0.9992299 0.052601688 0 0
1.9473983 1.9473983 1.9473983 -0.9992299 0 0
1.9473983 1.9473983 1.9473983 1.9473983 0 0
2.99923 -0.9992299 0.052601688 -0.9992299 0 0
0.052601688 -0.9992299 2.99923 2.99923 0 0
2.99923 -0.67045224 -0.6733173 2.99923 0 0
0.052601688 0.052601688 -0.9992299 1.9473983 0 0
1.9473983 2.99923 0.052601688 1.9473983 0 0
0.6540747 1.9473983 1.9473983 2.99923 0 0
-0.9992299 2.99923 1.8180325 2.99923 0 0
1.9473983 1.9473983 1.9473983 2.99923 0 0
1.9473983 1.9473983 1.9473983 -0.9992299 0 0
2.99923 1.9473983 2.99923 -0.9992299 0 0
2.99923 0.052601688 2.99923 -0.9992299 0 0
0.052601688 0.052601688 1.9473983 2.8416119 0 0
-0.9992299 2.99923 0.19098043 1.9473983 0 0
1.9473983 1.9473983 2.99923 2.99923 0 0
1.9473983 -0.9992299 -0.9992299 -0.9820659 0 0
1.9473983 1.9473983 2.99923 2.99923 0 0
0.052601688 -0.9992299 2.99923 1.9473983 0 0
2.99923 -0.9992299 1.9473983 0.052601688 0 0
1.9473983 2.99923 2.99923 0.052601688 0 0
2.669393 -0.6695356 -0.9859201 -0.9992299 0 0
0.052601688 1.9473983 1.9473983 -0.2489025 0 0
2.99923 -0.9992299 1.9473983 1.9473983 0 0
1.9473983 0.052601688 1.9473983 2.99923 0 0
2.99923 1.9473983 1.9473983 0.7068671 0 0
-0.9992299 1.9473983 1.9473983 2.99923 0 0
0.052601688 1.9473983 1.9473983 0.052601688 0 0
-0.6695965 0.052601688 -0.66930664 -0.9992299 0 0
-0.66953605 2.669536 2.6695416 -0.66953605 0 0
2.6694736 -0.81963867 -0.9992299 2.6695535 0 0
1.9473983 -0.9992299 1.9473983 -0.9992299 0 0
0.052601688 2.99923 -0.9992299 0.052601688 0 0
1.9473983 2.99923 -0.9992299 1.9473983 0 0
-0.9992299 0.052601688 0.2391224 2.99923 0 0
2.99923 1.9473983 -0.9992299 2.99923 0 0
-0.6695434 2.669536 -0.66953605 -0.66953605 0 0
-0.66953605 -0.66953605 -0.66953605 -0.66953605 0 0
-0.66953605 -0.66953605 -0.66953605 -0.66951895 0 0
2.99923 -0.9992299 0.052601688 -0.9992299 0 0
-0.9992299 2.99923 0.052601688 -0.9992299 0 0
-0.6739566 -0.6700779 1.9473983 0.052601688 0 0
1.9473983 0.052601688 2.99923 -0.9992299 0 0
2.99923 -0.9992299 2.99923 -0.9992299 0 0
-0.669536 -0.6695357 2.669536 -0.66953605 0 0
-0.6695304 2.4604173 2.038397 -0.6695316 0 0
-0.66954774 2.6695397 2.6695368 -0.66953605 0 0
1.9473983 1.9473983 2.99923 2.9992406 0 0
1.9473983 2.99923 1.9473983 2.99923 0 0
-0.9992299 1.9473983 0.052601688 0.052601688 0 0
1.9473983 1.9473983 1.9473983 2.99923 0 0
-0.9992299 2.99923 2.99923 1.4236178 0 0
-0.770046 2.4119415 2.6695647 -0.66953653 0 0
-1.5695357 1.76955 -1.5016514 -1.5695162 -1.5695484 -1.5695391
-1.569536 -1.5691539 -1.569536 -1.569536 -1.569536 -1.569536
-1.569536 -1.569536 -1.569536 -1.569536 -1.569536 -1.569536
-1.569536 -1.569536 -1.569536 -1.569536 1.769536 1.7695112
2.0992298 1.769522 -1.5695119 1.7694497 -0.8473983 1.7694752
1.7695442 -1.569536 -1.5695324 1.769536 -1.569537 1.7695246
-1.569536 1.7695341 -1.5695567 -1.569536 1.7695353 1.7695063
2.0992298 2.0992298 2.0992298 1.0473983 1.9762576 1.0473983
2.0992298 1.0473983 -0.45246062 2.0992298 -1.8992299 -0.8473983
2.0992298 1.0473983 -0.8473983 0.75763714 2.0992298 2.0992298
2.0992298 2.0992298 2.0992298 2.0992298 2.0992298 1.0473983
2.0992298 2.0992298 2.0992298 2.0992298 1.0473983 1.0473983
2.0992298 1.0473983 2.0992298 2.0992298 1.0473983 1.0473983
1.0473983 2.0992298 2.0992298 2.0992298 1.0473983 1.0473983
1.0473983 1.0473983 2.0992298 2.0992298 2.0992298 1.0473983
2.0992298 1.0473983 1.0473983 2.0992298 2.0992298 -0.8473983
2.0538206 2.0992298 2.0992298 1.0473983 1.0473983 -0.8473983
1.0473983 1.0473983 1.0473983 -0.8473983 1.0473983 1.0473983
1.0473983 2.0992298 -1.8992299 -1.8992299 1.9816306 2.0992298
1.769536 -1.5695825 1.769536 -1.5695362 1.769536 -1.5695361
1.0473983 1.0473983 2.0992298 -0.8473983 2.0992298 1.0473983
1.0473983 1.0473983 1.0473983 -0.8473983 1.0473983 0.7788307
-1.569499 -1.569536 1.769536 -1.5695361 -1.569536 1.7695372
-1.5695353 -1.5696068 -1.569536 -1.5695361 1.769536 -1.569536
-1.6436357 -1.6096804 1.7646147 -1.5703869 1.773881 1.0473983
-1.5695362 1.7695359 1.7695359 -1.569536 1.7694695 -1.5695359
-1.5695415 -1.569504 -1.5695438 -1.5695375 -1.5695361 1.7695361
-0.74665374 1.0473983 -1.8992299 2.0992298 -1.8992299 0.95732385
1.0473983 -1.8992299 2.0992298 1.0473983 -0.8473983 1.0473983
2.0992298 1.0473983 2.0992298 2.0992298 -1.8992299 -1.8992299
-1.8992299 1.0473983 -0.8473983 -1.8992299 2.0992298 1.0473983
1.0473983 1.0473983 2.0992298 2.0992298 2.0992298 2.0992298
1.0473983 1.0473983 1.0473983 -1.900146 1.0473983 1.0473983
1.0473983 1.0473983 2.0992298 2.0992298 1.0473983 2.0992298
2.0992298 2.0992298 2.0992298 2.0992298 1.0473983 1.0473983
2.0992298 -1.8992299 -0.6255417 -0.8473983 2.1005697 1.0473983
1.0473983 2.0992298 1.0473983 2.0992298 1.0473983 2.0992298
1.7709801 1.0473983 1.7406662 -1.5706627 -1.5458317 2.0992298
1.0473983 1.0473983 1.0473983 2.0992298 1.0473983 -1.8992299
1.0473983 -1.56586 -1.5856509 1.0473983 -1.5728452 -1.5684922
1.0473983 2.0992298 -0.8473983 1.0473983 2.0992298 2.0992298
-0.8473983 2.0992298 -1.8992299 2.0992298 -0.8473983 1.0473983
-0.8473983 -0.8473983 -0.65899986 1.0473983 1.0473983 -0.8473983
2.0992298 1.0473983 0.5916135 2.0992298 -0.8473983 1.0473983
1.0473983 2.0992298 -0.8473983 1.0473983 1.0473983 1.0473983
-0.8316553 2.0992298 2.0992298 1.0473983 2.043034 2.0992298
2.0992298 1.0473983 2.0992298 2.0992298 1.0473983 1.0473983
2.0992298 1.0473983 2.0992298 1.0473983 1.0473983 1.0473983
2.0992298 1.0473983 2.0992298 1.0473983 1.0473983 1.0473983
1.0473983 1.0473983 2.0992298 1.0473983 2.0992298 1.0473983
2.0992298 2.0992298 2.0992298 2.0992298 1.0473983 1.0473983
2.0992298 1.0473983 1.0473983 1.0473983 2.0992298 -0.8473983
2.0992298 -1.8992299 1.0473983 2.0992298 1.0473983 2.0992298
2.0992298 2.0992298 2.0992298 1.0473983 2.0992298 2.0992298
2.0992298 -1.8992299 2.0992298 -0.8473983 1.0473983 -0.8473983
1.0473983 -1.8992299 2.0992298 1.0473983 2.0992298 -0.8473983
-0.8473983 1.0473983 -1.8992299 1.0473983 1.0473983 -0.8473983
-0.8473983 1.0473983 -0.8473983 1.0473983 1.0473983 2.0992298
-1.5694548 -1.5695362 -1.5695577 -1.5695907 -1.1100438 -0.8473983
-1.6358583 2.0992298 2.0992298 1.0473983 2.0992298 2.0992298
-0.8473983 -0.5538461 -1.8992299 -0.8473983 2.0992298 -1.8992299
2.0992298 1.0473983 1.0473983 1.0473983 2.0992298 1.0473983
2.0992298 1.0473983 2.0992298 2.0992298 1.0473983 2.0992298
1.0473983 1.0473983 2.0992298 1.0473983 1.0473983 2.0992298
2.0992298 -1.8992299 1.0473983 1.0473983 -0.8473983 1.0473983
2.0992298 2.0992298 1.0473983 -1.8992299 1.0473983 1.0473983
1.0473983 1.0473983 1.0473983 1.0473983 1.0473983 1.0473983
2.0992298 2.0992298 1.0473983 1.0473983 1.0473983 1.0473983
1.0473983 2.0992298 2.0992298 -1.8992299 2.0992298 -1.8992299
1.0473983 1.0473983 -1.8992299 1.0473983 2.0992298 1.0473983
1.0473983 2.0992298 -0.8473983 1.0473983 -0.8473983 -0.8473983
1.7695918 -1.8992299 1.7691457 -1.5695996 -1.5694811 -1.8975255
-0.8473983 -1.8482162 2.0635655 -1.8992299 -0.8473983 -0.8473983
-1.5696137 -1.5695095 -1.5695436 -1.8992299 -1.4870684 -1.5695689
-1.569536 -1.569536 -1.569536 -1.569536 -1.569536 -1.569536
-1.8992299 -0.8473983 -0.8473983 -0.8473983 2.0992298 -1.8992299
-1.569536 1.7694956 1.7695365 -1.569536 1.7695569 1.769536
2.0992298 2.0992298 2.0992298 2.0992298 2.0992298 2.0992298
2.0992298 -1.8992299 2.0992298 2.0992298 2.0842078 1.0473983
1.0473983 2.0992298 2.0992298 2.0992298 1.0473983 1.0473983
-1.8992299 1.0473983 -1.8992299 1.0473983 -1.8992299 0.6102773
2.0992298 -1.8992299 1.0473983 1.0473983 1.0473983 2.0992298
1.0473983 1.0473983 2.0992298 2.0992298 -1.8992299 1.0473983
2.0992298 1.0473983 2.0992298 2.0992298 2.0992298 -1.8992299
-0.8473983 -0.8473983 1.0473983 1.0473983 1.0473983 2.0992298
-1.5695138 1.7695659 1.7695432 -1.8992299 1.7695358 -1.812599
-0.8473983 1.0473983 1.0473983 1.0473983 -1.8992299 1.0473983
-1.569536 -1.569536 -1.569536 -1.569534 -1.569536 -1.569536
-1.569536 1.769536 -1.569536 -1.5695345 1.769536 -1.569536
-1.569536 -1.569536 -1.569536 -1.569536 -1.569536 -1.569536
-1.569536 -1.569536 -1.569536 -1.569536 -1.569536 -1.569536
1.7694755 1.7695143 -1.6467538 -1.5695511 -1.8915036 1.7694976
1.769536 -1.569536 -1.569536 1.769536 -1.569536 -1.569536
-1.8992299 -0.8473983 2.0992298 2.0992298 1.0473983 1.0473983
1.0473983 -1.8992299 2.081295 1.0473983 -1.8992299 -1.8992299
-0.8473983 2.0992298 2.0992298 -0.8473983 -1.8992299 -0.8473983
-0.8473983 1.0473983 -1.8992299 -1.8992299 0.41947752 -0.8473983
-1.8992299 1.0473983 2.0992298 -0.8473983 -1.8992299 1.0473983
1.7531803 -1.5704467 1.7685889 -1.5869162 -1.8992299 -1.8992299
-1.8992299 -1.9005461 -1.8992299 1.0473983 -0.8473983 2.0992298
2.0992298 -0.8473983 2.0992298 2.0992298 1.0473983 -0.8473983
-1.569536 1.7695396 -1.569536 1.769536 -1.569536 1.769536
-0.8473983 2.0992298 -1.8992299 1.0473983 1.0473983 2.0992298
-1.569536 -1.569536 -1.569536 -1.569536 1.769536 -1.569536
-1.569536 -1.569536 -1.569536 -1.569536 -1.569536 -1.569536
-1.569536 -1.569536 -1.569536 -1.569536 -1.569536 1.7521708
-1.569536 -1.569536 -1.569536 1.769536 1.769536 -1.569536
-1.5695353 1.769536 -1.569537 -1.5695281 -1.569536 -1.569536
-1.569536 -1.569536 -1.569536 -1.569536 -1.569536 -1.569536
1.7696781 -1.5692687 -1.5689554 1.7695359 -0.8473983 -1.8992299
1.8869247 1.0473983 -0.8473983 -1.8992299 1.0473983 2.033275
2.0992298 -0.8473983 2.10045 -0.8473983 -0.8473983 -1.8992299
2.0992298 -1.8992299 -0.8473983 -1.8992299 2.0992298 1.0473983
-1.8992299 1.0473983 1.0473983 -0.8473983 2.0992298 -1.8992299
-1.5693567 -1.5724471 2.0992298 2.0992298 -1.5811913 -1.5654508
1.0473983 2.0992298 -0.8473983 -0.8473983 1.0473983 -0.8473983
-1.8992299 1.0473983 2.0992298 -1.8992299 -1.8992299 -0.8473983
1.769536 -1.569536 1.769536 -1.5695332 1.769536 -1.569536
-1.8992299 1.0473983 1.0473983 -0.8473983 1.0473983 1.0288724
-1.5695338 -1.569536 1.769536 -1.569536 1.769536 -1.569536
-1.569536 -1.5695438 -1.5695333 1.769534 1.769536 1.769536
-1.569536 -1.569536 -1.569536 1.769536 -1.569536 1.769536
-1.5695202 1.769536 -1.5694511 1.7694284 -1.5695312 1.769536
2.0992298 1.0473983 1.0473983 1.0473983 1.0473983 2.0992298
1.0473983 -0.8473983 1.0473983 1.0473983 2.0992298 -0.8473983
-1.8992299 -1.8992299 1.0473983 -0.8473983 1.0473983 1.0473983
2.0992298 -0.8473983 1.0473983 1.0473983 2.0992298 -1.8992299
-1.5696977 -1.0984205 1.769553 -1.5695568 1.7694998 -1.5695379
2.6694908 -0.66937786 2.7831511 1.9473983 0 0
1.9473983 1.9473983 1.9473983 2.99923 0 0
2.99923 1.9473983 2.99923 1.9473983 0 0
1.9473983 1.9473983 1.9473983 2.99923 0 0
2.99923 1.9473983 1.9473983 2.99923 0 0
2.99923 2.99923 -0.9992299 1.9473983 0 0
1.9473983 -0.9992299 1.9473983 2.99923 0 0
2.9946458 1.9473983 -0.9992299 0.13742237 0 0
-0.9992299 -0.88131845 0.052601688 -0.9992299 0 0
0.052601688 2.99923 1.9473983 2.99923 0 0
1.9473983 -0.9992299 -0.9992299 2.9972873 0 0
2.99923 -0.9992299 0.052601688 2.99923 0 0
2.99923 0.052601688 1.9473983 -0.9992299 0 0
0.052601688 -0.9992299 0.052601688 -0.9992299 0 0
-0.9992299 1.9473983 1.9473983 -0.9992299 0 0
0.052601688 0.052601688 2.99923 0.052601688 0 0
1.9473983 2.99923 -0.9992299 2.9877052 0 0
1.9473983 2.99923 1.9473983 2.99923 0 0
2.99923 2.99923 0.052601688 2.99923 0 0
0.052601688 2.99923 1.9473983 2.99923 0 0
1.9473983 0.052601688 1.9473983 2.99923 0 0
1.9473983 0.052601688 1.9473983 0.052601688 0 0
0.052601688 2.99923 2.99923 1.9473983 0 0
-0.9992299 0.052601688 2.99923 -0.9992299 0 0
-0.9992299 1.9473983 -0.9992299 0.052601688 0 0
2.99923 -0.9992299 1.9473983 -0.9992299 0 0
2.99923 -0.9992299 1.9473983 1.9473983 0 0
-0.9992299 2.99923 2.99923 2.99923 0 0
1.3528886 1.9473983 0.052601688 2.99923 0 0
-0.9909668 0.5114913 -0.9992299 -0.9992299 0 0
0.052601688 1.9473983 2.99923 2.99923 0 0
2.983528 2.99923 1.8690214 -0.9992299 0 0
-0.78308135 2.6695497 -0.6695085 -0.55609 0 0
2.99923 2.99923 -0.9992299 1.9473983 0 0
2.99923 1.9473983 1.9473983 1.9473983 0 0
1.9473983 2.99923 1.9473983 1.9473983 0 0
1.9473983 2.99923 2.99923 1.9473983 0 0
1.9473983 2.99923 0.052601688 -0.9992299 0 0
-0.6695536 1.9473983 2.6695547 1.9473983 0 0
-0.6695378 -0.6695376 -0.66953605 -0.66953605 0 0
-0.66953534 2.669607 -0.47414643 -0.7727715 0 0
1.9473983 1.9473983 2.99923 2.9998605 0 0
-0.9992299 -0.9992299 0.052601688 2.99923 0 0
-0.9992299 1.9473983 1.9473983 1.9473983 0 0
0.052601688 -0.9992299 -0.9992299 0.052601688 0 0
0.052601688 1.9473983 1.9473983 2.99923 0 0
2.669536 -0.66953605 -0.66949564 2.6695364 0 0
-0.66953605 -0.6680556 2.669536 -0.66953605 0 0
-0.66953605 -0.6694913 -0.66953605 -0.66953605 0 0
-0.99853903 2.6694052 2.6695914 1.9473983 0 0
-0.9992299 1.9473983 1.9473983 -0.9992299 0 0
0.052601688 0.052601688 1.9473983 2.99923 0 0
-0.9992299 -0.9992299 2.99923 0.052601688 0 0
1.9473983 0.052601688 2.99923 0.052601688 0 0
2.669559 -0.9992299 -0.66482675 -0.66952896 0 0
-0.66953605 -0.66953605 -0.66953605 2.669536 0 0
-0.66953605 2.669536 -0.66953605 -0.66953605 0 0
1.9473983 -0.66962177 2.99923 -0.6692602 0 0
1.9473983 0.052601688 2.99923 1.9473983 0 0
2.7289753 1.9473983 0.052601688 2.7292795 0 0
1.9473983 -0.6667228 2.99923 -0.76747763 0 0
2.99923 0.107578285 1.9473983 2.99923 0 0
2.99923 1.9473983 2.99923 2.9133692 0 0
1.6640587 2.6695223 1.3751216 -0.6695416 0 0
1.7694829 1.7714684 1.0473983 1.7704701 1.0473983 1.7683107
-1.5695021 1.7696714 -1.8983806 -1.5688739 -1.7693028 1.769531
1.4657305 1.0473983 -0.8473983 -1.5922649 -1.7247771 2.0992298
1.769536 -1.569536 1.7695155 1.769536 -1.569536 1.769536
2.0992298 1.0473983 2.0992298 2.0992298 1.0473983 2.0992298
2.0992298 1.0473983 2.0992298 1.0473983 1.0473983 2.0992298
1.7691869 1.7686491 1.8817176 1.7693698 1.7688264 2.0992298
2.0992298 1.0473983 2.0992298 1.0473983 2.0992298 1.0473983
1.0473983 2.0992298 2.0992298 -1.8992299 2.0992298 1.0473983
1.0473983 2.0992298 1.0473983 -1.7532637 1.0473983 2.0992298
2.0992298 1.0473983 2.0992298 1.0473983 1.0473983 2.0992298
1.0473983 1.0473983 1.0473983 1.0473983 2.0992298 -0.4791765
1.7734897 1.7619554 1.7747191 1.0473983 1.778969 -0.8473983
2.0992298 2.0992298 2.0992298 2.0992298 2.0992298 1.0473983
1.0473983 2.0992298 2.0992298 2.0992298 2.0992298 1.0473983
-1.5138032 1.774915 2.0992298 1.7879189 1.7563133 2.0992298
1.0473983 -1.8992299 2.0992298 2.0992298 2.0992298 2.0992298
2.0992298 2.0992298 -0.8473983 -1.8992299 1.0473983 1.0473983
1.0473983 1.0473983 2.0992298 1.0473983 -0.8473983 2.0992298
-1.8833722 2.0992298 1.0473983 -1.8992299 2.0992298 -1.8992299
2.0992298 0.73620665 -0.8473983 1.0473983 -1.8992299 1.8438671
1.0473983 -1.8992299 2.0992298 1.0473983 2.0992298 1.0473983
0.6590494 1.0473983 -0.8473983 -1.8992299 -1.8992299 1.6672616
-1.5695362 1.7695386 1.7492828 1.7695367 -1.5695429 1.9373736
-0.8473983 1.0473983 -0.8473983 2.0992298 -1.8992299 1.3202698
0.30586487 -0.8473983 -0.614933 2.0992298 -1.8992299 -1.1268432
-0.8473983 1.0473983 -1.8992299 2.0992298 1.0473983 -0.8473983
2.0982661 0.8072231 1.0473983 1.0473983 2.0992298 2.0992298
0.50778097 1.0473983 -1.6805937 -0.29307014 2.0992298 2.0992298
1.0473983 1.0286549 1.0473983 -1.8992299 1.0473983 1.0473983
2.0992298 -1.8992299 2.0992298 1.0473983 -1.8992299 2.0992298
1.0473983 -0.8473983 -1.8992299 2.1004577 1.0473983 1.0018133
2.0992298 1.0473983 1.0473983 1.0473983 2.0992298 2.0992298
2.0992298 1.0473983 2.0992298 2.0992298 0.6852828 -0.8473983
2.0992298 -0.8473983 -1.8082514 -0.8473983 1.0473983 1.0473983
-1.8992299 2.0992298 -1.8992299 2.0992298 -0.8473983 -0.8473983
-1.8992299 2.0992298 2.0992298 -1.8992299 1.0473983 -0.8473983
1.0473983 -0.8473983 2.0992298 2.0992298 -0.8473983 2.0992298
-1.8992299 2.0992298 -0.8473983 -1.8992299 2.0992298 -0.8473983
2.0992298 2.0992298 -1.8992299 -0.8473983 1.0473983 -1.8992299
1.0473983 0.878264 -0.8473983 -0.6662684 1.0473983 1.0473983
1.0473983 1.0173318 -0.8473983 2.0992298 -1.8992299 -1.8992299
-0.8473983 1.0473983 -1.8992299 -1.8992299 -0.30958837 -1.8992299
-1.7050788 1.0473983 -1.891896 2.0992298 1.0473983 1.0473983
1.0473983 2.0992298 0.7876883 2.0992298 2.0236406 -0.8473983
2.0992298 2.0992298 -0.8473983 1.0473983 1.0473983 1.0473983
-1.6778836 1.0473983 1.0473983 1.0473983 -0.8473983 1.0473983
2.0992298 2.1005063 2.0992298 2.0992298 1.0473983 1.0473983
2.0992298 1.0473983 1.0473983 2.0992298 2.0992298 2.0992298
1.0473983 -0.8473983 1.0473983 2.0992298 2.0992298 -0.8473983
1.0473983 -0.8473983 2.0992298 2.0992298 1.0473983 1.0473983
2.0992298 1.0473983 2.0992298 2.0992298 -1.8992299 -0.8473983
2.0992298 1.0473983 -1.8992299 -0.8473983 2.0992298 -0.8473983
-1.8992299 -0.8473983 -0.8473983 2.0992298 1.0473983 0.7711868
2.0992298 2.0992298 -1.8992299 1.0473983 2.0992298 0.4380582
-1.8992299 -0.8473983 -0.2742266 1.0473983 2.0992298 -1.8992299
-1.8992299 -0.8473983 1.0473983 2.0992298 -1.8992299 2.0992298
2.0992298 1.0473983 -1.8884742 1.0473983 -0.8473983 -0.8473983
-1.569527 1.7695284 -1.44554 1.7695155 -1.5695264 -1.3220868
2.0992298 -1.8992299 1.0473983 1.0473983 -1.8992299 2.0992298
-0.8473983 -1.8992299 1.0473983 1.0473983 2.100039 1.0473983
2.0992298 1.0473983 2.0992298 1.0473983 2.0992298 2.0992298
1.0473983 0.836994 2.0992298 2.0992298 2.0992298 1.0473983
-1.8992299 1.0473983 2.0992298 2.0992298 2.0992298 1.0473983
-1.888294 1.0473983 2.0992298 2.0992298 1.0473983 2.0992298
2.0992298 -0.8473983 -1.8992299 -1.8992299 1.0473983 -0.8473983
2.0992298 1.0473983 1.0473983 1.0473983 1.0473983 1.0473983
2.0992298 2.0992298 -0.8473983 2.0992298 -1.8992299 2.0992298
-1.8992299 -1.8992299 2.0992298 2.0992298 0.95437634 -1.8992299
2.0992298 1.0473983 2.0992298 2.0992298 2.0992298 1.0473983
1.7691007 1.7695336 -1.5696084 2.0992298 1.7695738 1.0473983
-1.569536 -1.569536 -1.569538 -1.5695374 -1.569536 -1.569536
-1.5343666 1.7695308 -1.5694872 -1.5695546 -1.1657971 1.7695346
1.769536 -1.5695373 -1.569536 -1.569536 -1.5695293 -1.569536
-1.7572731 -1.569534 -1.5695364 1.7695848 -1.5695529 -1.6126442
2.0992298 2.0992298 -1.8992299 1.0473983 2.0992298 1.0473983
1.0473983 1.0473983 2.0992298 2.0992298 -0.8473983 2.0992298
1.0473983 1.0473983 2.0992298 1.0473983 2.0992298 1.0473983
-0.8424015 2.0992298 2.0992298 2.0992298 2.0992298 2.0992298
1.0473983 1.0473983 1.0473983 1.0473983 2.0992298 1.0473983
2.0992298 2.0992298 -1.8992299 1.0473983 1.0473983 2.0992298
1.0473983 1.0473983 2.1005359 -0.8473983 2.0992298 -1.8992299
2.0995917 2.0018263 2.0992298 -1.8992299 2.1003041 -0.8473983
-1.5695822 2.0679607 1.769402 1.7694114 1.7696972 1.0473983
1.990684 0.6059419 -1.8992299 1.0473983 2.0992298 1.0473983
-1.569536 1.769536 1.769536 1.769536 1.7690587 -1.569536
-1.569536 1.7695395 1.769536 -1.569536 1.769536 1.7695385
1.769536 1.7694757 -1.569536 -1.569536 1.7695339 -1.569536
-1.5695355 1.7695394 -1.4483695 1.7695407 -1.5521894 1.7695332
1.769536 -1.569536 -1.569536 1.769536 -1.569536 -1.569536
-1.569536 1.769536 -1.569536 -1.569536 -1.569536 -1.569536
2.0992298 2.0992298 -0.8473983 2.0992298 1.9416151 2.0992298
1.7695236 1.7694883 -1.9005333 1.7695034 1.7695452 -1.8800977
1.0473983 2.0992298 2.0992298 1.0473983 1.0473983 2.0992298
1.0473983 2.0992298 -1.7784775 2.0992298 2.0992298 -1.8992299
-1.8992299 -1.8992299 -1.8969414 0.7022865 2.0992298 -0.8473983
-1.8992299 1.0473983 -0.8473983 -0.8473983 2.0992298 -1.8992299
1.0473983 2.0992298 0.76556885 2.0992298 -0.8473983 -1.8992299
1.0473983 1.0473983 -0.8473983 -1.8992299 2.0992298 -0.8473983
-1.569536 -1.569536 1.769536 1.7695261 1.769536 1.7695361
-1.8992299 1.0473983 2.0992298 0.69806826 1.0473983 -1.8992299
-1.569536 1.769536 1.769536 -1.569536 -1.569536 -1.569536
-1.569536 -1.569536 1.769536 1.7695445 -1.5695347 1.769536
-1.569536 -1.569536 -1.569536 -1.569536 -1.5695221 -1.569536
-1.569536 1.7694429 -1.569536 1.769536 -1.569536 1.769536
1.7695001 -1.569536 -1.569536 -1.569536 -1.569536 1.769526
-1.569536 -1.569536 -1.569536 -1.5695351 -1.569536 -1.569536
-1.6854384 -1.5695357 1.7695564 1.7697785 1.0473983 -1.5692993
-1.8992299 1.7692561 0.9643307 1.7695363 1.7695864 -1.570034
1.0473983 1.0473983 -1.8992299 1.0473983 -0.44918546 -0.2617215
0.7443466 2.0992298 2.0992298 -0.8473983 2.0992298 2.0992298
-1.5658064 -1.5697196 -1.5685326 1.7707962 2.0992298 -1.8992299
-0.8473983 1.0473983 1.0473983 1.0473983 1.0473983 1.0473983
1.0473983 -0.8473983 2.0992298 1.0473983 2.0992298 -0.8473983
1.0473983 2.0992298 2.0992298 -0.8473983 1.0473983 -1.6730762
1.7695347 -1.64013 1.7695605 -1.519314 -1.5695314 -1.5695196
2.0992298 1.0473983 -0.8473983 2.0302181 1.0473983 -0.8473983
-1.569536 1.769536 -1.569536 -1.569536 -1.569536 1.7695305
1.7695527 -1.8992299 1.7695292 1.7695198 -1.5702617 1.7695346
-1.569536 -1.569536 -1.569536 1.769536 -1.569536 1.769536
-1.569536 -1.5695168 -1.569536 1.769536 -1.569536 -1.569536
1.769536 1.769536 -1.569536 -1.569536 -1.569536 -1.569536
2.0992298 -1.5646636 1.0473983 1.7696269 -1.5720923 1.7690651
1.7780349 -0.8473983 1.7695253 -1.8997519 1.7687544 1.7568266
1.7563393 1.7689335 -0.8473983 2.0992298 1.7680781 1.8119266
1.0473983 1.7705512 2.0992298 1.7713276 1.5741256 1.7785578
2.0992298 1.0473983 1.0473983 1.0473983 1.0473983 2.0992298
-1.274921 1.7695302 1.7695332 -1.8992299 1.7695389 -1.5695359
-0.66953605 -0.6695362 -0.6695467 -0.66953605 0 0
2.6696253 2.7433038 -0.9716803 -0.6695565 0 0
2.99923 1.9473983 -0.9992299 0.052601688 0 0
2.99923 -0.9992299 2.99923 2.99923 0 0
1.9473983 2.99923 2.99923 2.99923 0 0
-0.9992299 1.9473983 2.99923 0.052601688 0 0
2.99923 2.99923 2.99923 -0.9992299 0 0
2.6697493 2.6695356 -0.66953605 2.6695359 0 0
-0.82898974 2.6702476 -0.67008513 -0.34718663 0 0
2.99923 0.052601688 1.9473983 2.99923 0 0
0.052601688 1.9473983 2.819893 0.052601688 0 0
2.99923 2.99923 1.9473983 -0.9992299 0 0
1.9473983 2.99923 2.99923 1.9473983 0 0
2.99923 -0.9992299 0.052601688 0.052601688 0 0
0.052601688 2.99923 1.9473983 2.99923 0 0
1.9473983 -0.67525643 -0.6630195 1.9473983 0 0
-0.9992299 0.052601688 -0.9992299 2.99923 0 0
2.99923 0.052601688 0.052601688 1.9473983 0 0
0.052601688 1.9473983 2.99923 2.99923 0 0
1.9473983 2.99923 2.99923 1.9473983 0 0
1.9473983 2.8803582 1.9473983 1.9473983 0 0
2.99923 1.9473983 2.99923 2.99923 0 0
1.9473983 1.9473983 2.99923 0.052601688 0 0
2.99923 -0.9992299 2.99923 0.052601688 0 0
0.052601688 -0.9992299 1.7115725 -0.9768822 0 0
-0.9992299 2.99923 1.7827415 2.99923 0 0
2.99923 1.9473983 2.99923 2.99923 0 0
2.99923 -0.9992299 -0.9992299 1.9473983 0 0
1.9473983 1.9473983 2.99923 2.99923 0 0
0.052601688 -0.9992299 1.9473983 1.9473983 0 0
1.9473983 -0.9992299 2.99923 -0.9992299 0 0
2.99923 2.99923 1.9473983 -0.9992299 0 0
2.99923 -0.9992299 -0.9992299 -0.9992299 0 0
-0.9992299 2.99923 2.99923 -0.9992299 0 0
2.99923 0.052601688 1.9473983 2.99923 0 0
1.9473983 2.99923 2.99923 0.052601688 0 0
2.99923 1.9473983 1.9473983 -0.9992299 0 0
0.052601688 2.99923 2.99923 1.9473983 0 0
-0.9992299 1.9473983 2.99923 0.052601688 0 0
0.052601688 -0.9992299 -0.9992299 -0.9992299 0 0
-0.66953605 2.6694303 -0.6695339 -0.66953623 0 0
2.6695395 -0.7893274 -0.7515413 -0.6695517 0 0
2.99923 0.052601688 -0.9992299 -0.9992299 0 0
-0.9992299 1.9473983 0.052601688 0.052601688 0 0
1.9473983 2.99923 1.9473983 2.99923 0 0
-0.9992299 -0.9992299 0.052601688 2.99923 0 0
0.052601688 1.9473983 0.052601688 1.9473983 0 0
-0.66953224 2.6695356 -0.66953605 -0.66953605 0 0
-0.66953605 -0.66953605 -0.66953605 -0.66953605 0 0
-0.6695358 -0.66953635 -0.66953605 -0.66953605 0 0
2.99923 0.052601688 0.052601688 0.052601688 0 0
1.9473983 -0.9992299 1.3485163 0.052601688 0 0
2.99923 -0.9992299 2.99923 -0.9992299 0 0
2.99923 -0.9992299 2.99923 0.052601688 0 0
2.99923 0.052601688 1.9473983 0.052601688 0 0
-0.6695364 -0.66953814 2.669536 -0.6695429 0 0
-0.66953605 2.6695285 2.111561 -0.6695359 0 0
-0.66952294 1.9473983 2.9100654 -0.6695401 0 0
1.9473983 2.99923 2.99923 1.9473983 0 0
1.9473983 2.99923 2.99923 0.052601688 0 0
0.052601688 1.9473983 -0.9992299 -0.9992299 0 0
1.9473983 1.9473983 0.052601688 2.9813209 0 0
1.9473983 2.99923 2.99923 2.99923 0 0
-0.5624062 2.3817222 2.6695912 -0.66953486 0 0
-1.569536 1.7695252 -1.569535 -1.5695372 -1.569536 -1.569536
-1.569536 1.769536 -1.569536 -1.569536 -1.569536 -1.569536
-1.569536 -1.569536 -1.5695157 -1.569536 -1.569536 -1.5695363
-1.569536 -1.569536 -1.569536 -1.569536 1.769536 1.769536
1.7694771 1.7695093 -1.4398437 1.7695973 -1.6888168 1.7694893
1.0473983 -0.8473983 0.8239484 2.0992298 -0.8473983 1.0473983
-1.569536 1.769536 -1.569536 -1.569536 1.769536 1.769536
2.0992298 2.0992298 1.0473983 2.0992298 2.0032763 2.0992298
2.0992298 2.0992298 2.0992298 2.0992298 -1.8993297 -0.8473983
0.7356472 2.0992298 -1.8992299 0.5819449 2.0992298 1.0473983
2.0992298 1.0473983 2.0992298 2.0992298 1.0473983 2.0992298
1.0473983 2.0992298 2.0992298 1.0473983 1.0473983 1.0473983
2.0992298 1.0473983 1.0473983 1.0473983 2.0992298 -0.8473983
2.0992298 2.0992298 1.0473983 1.0473983 1.0473983 2.0992298
1.0473983 2.0992298 1.0473983 1.0473983 1.0473983 2.0992298
1.0473983 1.0473983 1.0473983 2.0180311 1.0473983 -1.8992299
1.0473983 1.0473983 1.0473983 1.0473983 1.0473983 -1.8992299
2.0992298 1.0473983 2.0992298 -1.8992299 1.0473983 2.0992298
1.0473983 2.0992298 1.0473983 -0.8473983 1.0473983 1.0473983
1.769536 -1.5688641 1.769536 -1.5695369 1.769536 1.769536
1.0473983 2.0992298 1.0473983 -0.8473983 1.0473983 1.0473983
2.0992298 1.0473983 1.0473983 -0.8473983 2.0992298 1.0473983
-1.5692583 -1.569536 1.769536 -1.5695362 -1.569536 1.7695365
-1.5695372 1.769536 -1.569536 -1.5695361 1.769536 -1.569536
1.769536 -1.5695192 1.769536 -1.569536 1.769536 -1.5695393
1.1620994 2.0073698 1.7702963 -1.5702418 1.7720776 -1.5695165
-1.8217173 -1.5700452 -1.5816908 -0.9940107 -1.5661097 1.7708278
0.99723244 2.0992298 -1.8992299 2.0992298 -1.8992299 -1.8431242
2.0992298 -1.8992299 1.0473983 2.0992298 -0.8473983 2.0992298
-1.8992299 1.0473983 1.0473983 1.0473983 -0.8473983 -1.8992299
-0.8473983 1.0473983 -0.8473983 -1.8992299 -0.46679923 2.0992298
1.0473983 2.0992298 1.0473983 2.0992298 1.0473983 1.0473983
1.0473983 1.0473983 2.0992298 -1.8659036 2.0992298 1.0473983
2.0992298 1.0473983 1.0473983 1.0473983 1.0473983 1.0473983
1.0473983 1.0473983 2.0992298 1.0473983 2.0992298 1.0473983
1.0473983 -1.8992299 2.0992298 1.0473983 1.0473983 1.0473983
2.0992298 2.0992298 1.0473983 1.0473983 2.0992298 1.0473983
1.6774603 1.0473983 1.7742008 -1.5624537 -1.5668151 2.0992298
2.0992298 1.0473983 2.0992298 2.0992298 2.0992298 -0.8473983
2.0992298 -1.5787609 -1.5760721 2.0992298 1.7671714 -1.5665662
1.0473983 1.0473983 -0.8473983 -1.8992299 2.0992298 -1.8975564
-1.8992299 1.0473983 -0.8473983 1.0473983 -0.8473983 1.0473983
-1.8992299 -0.8473983 -0.8473983 1.0473983 -1.8992299 1.0473983
2.0992298 2.0992298 -0.8473983 1.0473983 -0.8473983 1.0473983
1.0473983 1.0473983 -0.8473983 1.0473983 -1.8992299 1.0473983
2.0875015 2.0992298 2.0992298 2.0992298 -1.9002154 1.0473983
1.0473983 1.0473983 1.0473983 1.0473983 1.0473983 2.0992298
1.0473983 1.0473983 2.0992298 1.0473983 1.0473983 2.0992298
2.0992298 2.0992298 1.0473983 1.0473983 2.0992298 1.0473983
2.0992298 2.0992298 2.0992298 1.0473983 1.0473983 1.0473983
1.0473983 1.0473983 1.0473983 2.0992298 2.0992298 1.0473983
1.0473983 2.0992298 2.0992298 2.0992298 2.0992298 2.0992298
1.0473983 -0.8473983 1.0473983 2.0992298 -0.7723935 2.0992298
1.0473983 1.0473983 1.0473983 1.0473983 2.0992298 2.0992298
2.0992298 -1.8992299 1.0473983 -1.8992299 1.0473983 -0.8473983
1.0473983 2.0992298 2.0992298 1.0473983 2.0992298 0.77981555
-1.8992299 2.0992298 -0.8473983 2.0992298 1.0473983 0.7035502
-0.8473983 2.0992298 -1.8992299 2.0992298 -1.8992299 2.0992298
-0.8473983 -1.8992299 -1.7934834 -0.8473983 -0.8473983 -0.8473983
-1.8992299 2.0992298 1.0473983 2.0992298 0.7778119 1.0473983
-0.8473983 1.0473983 -0.8473983 -1.8961048 1.0473983 -0.8473983
2.0992298 1.0473983 1.0473983 1.0473983 1.0473983 1.0473983
1.0473983 1.0473983 2.0992298 2.0992298 2.0992298 1.0473983
1.0473983 2.0992298 1.0473983 2.0992298 2.0992298 2.0992298
2.0992298 1.0473983 1.0473983 1.0473983 1.0473983 2.0992298
1.0473983 2.0992298 2.0992298 -0.8473983 1.0473983 2.0992298
2.0992298 2.0992298 1.0473983 2.0992298 2.0992298 1.0473983
1.0473983 2.0992298 2.0992298 1.0473983 1.0473983 -1.8992299
1.0473983 2.0992298 2.0992298 -0.8473983 2.0992298 -1.8992299
2.0992298 1.0473983 -0.8473983 1.0473983 2.0992298 1.0473983
1.0473983 -1.8992299 -0.8473983 -1.8992299 -0.8473983 -0.8473983
1.371536 -0.8473983 2.0992298 -1.2441943 -1.1820986 -1.8992299
-1.8992299 -1.8440859 2.0064507 2.0500755 -1.8978919 0.56322116
-1.9001994 -1.7230082 -1.6611013 -1.8992299 -0.8630005 -1.8992299
-1.569536 -1.569536 -1.569536 -1.569536 -1.569536 -1.569536
-1.8992299 -1.8992299 2.0992298 -1.8992299 2.0992298 -1.8992299
-1.5695273 1.6390604 1.7695359 -1.5695534 1.8564054 1.7695165
1.0473983 2.0992298 1.0473983 1.0473983 2.0992298 1.0473983
1.0473983 -0.8473983 2.0992298 1.0473983 -0.8473983 -1.8992299
1.0473983 2.0992298 2.0992298 2.0992298 2.0992298 2.0992298
-0.8473983 2.0992298 -0.8473983 -1.8992299 -0.8473983 1.0473983
1.0473983 -1.8992299 1.0473983 1.0473983 1.0473983 2.0992298
1.0473983 -0.8473983 -1.8168585 1.0473983 -1.8992299 2.0992298
1.0473983 1.0473983 1.0473983 -0.8473983 2.0992298 -0.8473983
-0.8473983 -0.8473983 2.0992298 1.0473983 2.0992298 1.0473983
-1.8992299 2.0992298 1.0620214 -0.8473983 1.9308143 -1.8992299
-1.8992299 1.0473983 2.0992298 2.0831914 -0.8473983 2.0992298
-1.569537 -1.5808592 -1.5695359 -1.5695384 -1.5695336 -1.5706503
-1.569536 -1.569536 -1.5695362 -1.5695324 -1.569536 -1.5695364
-1.569536 -1.569536 -1.569536 -1.569536 -1.569536 -1.569536
-1.569536 -1.569536 -1.569536 -1.569536 -1.569536 -1.569536
-1.5695362 1.7695479 -1.1218975 -1.5695463 -1.6416541 1.7695355
-1.569536 -1.5695361 -1.5695372 -1.569536 -1.569536 -1.569536
-0.8473983 -0.8473983 0.6639732 2.0992298 1.0473983 -0.8473983
1.0473983 -1.8992299 -0.8473983 2.0992298 -0.8473983 -0.8473983
2.0992298 2.0992298 2.0992298 1.0473983 -0.8473983 -1.8992299
-1.8992299 2.0992298 -0.8473983 -0.6358154 -1.9004937 1.0025636
2.0992298 -0.8473983 -0.49581093 -0.8473983 -0.8473983 2.0992298
1.0473983 -0.8473983 2.0992298 -1.8992299 2.0992298 -0.8473983
-1.8992299 2.0992298 -0.8473983 1.0473983 -1.8992299 2.0992298
-0.8473983 -1.8992299 2.0992298 1.0473983 1.0473983 -0.8473983
-1.569536 1.7695394 1.769536 1.7695363 -1.569536 1.7695366
-0.8473983 2.0992298 -1.8992299 2.0992298 1.0473983 1.0473983
-1.569536 -1.569536 -1.569536 -1.569536 1.769536 -1.569536
-1.569536 -1.569536 -1.569536 -1.569536 -1.569536 -1.569536
-1.569536 -1.569536 -1.569536 -1.569536 -1.569536 1.769536
-1.569536 -1.569536 -1.569536 -1.569536 -1.569536 -1.569536
-1.5695366 -1.5695252 -1.5695362 -1.569536 -1.569536 -1.569536
-1.569536 -1.5695332 -1.569536 -1.569536 1.769536 -1.569536
2.0992298 -1.8992299 -1.8992299 2.0992298 -1.8992299 -0.8473983
2.0992298 -1.7780869 -0.8473983 -1.8992299 2.0992298 0.96899474
1.0473983 2.0992298 2.1001909 -1.8992299 -1.8992299 -1.8992299
1.0473983 -1.8992299 -1.8992299 -1.8992299 2.0992298 2.0992298
2.0992298 1.0473983 1.0473983 -0.8473983 1.0473983 -0.8473983
-1.8992299 2.0992298 2.0992298 1.0473983 -0.24380851 -0.8473983
2.0992298 -1.8992299 -0.8473983 -1.8992299 1.0473983 -1.8992299
-0.8473983 1.0473983 1.0473983 -1.8992299 -0.8473983 -0.8473983
1.769536 -1.5695367 1.769536 -1.5695344 1.769536 -1.5695324
2.028685 1.0473983 2.0992298 -0.8473983 2.0992298 1.0473983
-1.569531 -1.569536 1.769536 -1.5695343 1.769536 -1.569536
-1.569536 -1.5695221 -1.5695357 1.1696012 -1.5689433 1.7695365
-1.569536 -1.569536 -1.569536 1.769536 -1.569536 1.769536
-1.5695196 -1.5695417 1.2329737 1.76953 1.4831357 1.7695441
1.0473983 1.0473983 1.0473983 1.0473983 1.0473983 2.0992298
2.0992298 -1.8992299 1.0473983 2.0992298 1.0473983 -0.8473983
-0.8473983 -0.8473983 1.0473983 -1.8992299 2.0992298 1.0473983
1.0473983 2.0118477 1.0473983 2.0992298 2.0992298 2.0992298
1.7695345 -0.8473983 1.7695588 2.0454717 1.7695585 -1.5695359
2.99923 0.052601688 2.99923 2.99923 0 0
1.9473983 2.99923 0.052601688 1.9473983 0 0
1.9473983 2.99923 2.99923 2.99923 0 0
2.99923 1.9473983 1.9473983 1.9473983 0 0
-0.9564149 1.9473983 1.9473983 2.99923 0 0
1.9473983 2.99923 -0.9992299 1.9473983 0 0
2.99923 -0.854471 -0.88493615 1.9473983 0 0
2.99923 2.99923 0.052601688 0.052601688 0 0
0.052601688 0.493041 1.4075418 -0.9992299 0 0
0.052601688 1.9473983 1.9473983 2.99923 0 0
1.9473983 0.052601688 -0.9992299 2.7725806 0 0
2.99923 -0.9992299 -0.9992299 2.99923 0 0
2.99923 1.9473983 2.99923 0.052601688 0 0
0.052601688 -0.9992299 -0.9992299 -0.9992299 0 0
0.052601688 1.9473983 2.913425 -0.9992299 0 0
-0.9992299 -0.9992299 2.99923 0.052601688 0 0
1.9473983 2.99923 2.87956 2.99923 0 0
1.9473983 1.9473983 0.58611554 2.99923 0 0
1.9473983 2.99923 0.052601688 1.9473983 0 0
0.052601688 1.9473983 1.9473983 2.99923 0 0
2.99923 0.052601688 2.99923 2.99923 0 0
2.99923 -0.9992299 1.9473983 -0.9992299 0 0
0.052601688 2.99923 1.9473983 0.052601688 0 0
0.052601688 0.052601688 1.9473983 2.99923 0 0
0.20964202 2.99923 0.052601688 -0.9992299 0 0
2.99923 0.052601688 2.99923 -0.9992299 0 0
2.99923 -0.9992299 1.9473983 -0.9992299 0 0
0.052601688 2.99923 1.9473983 2.99923 0 0
1.6061823 2.99923 0.052601688 2.99923 0 0
0.6939217 0.052601688 -0.9992299 0.052601688 0 0
0.052601688 1.9473983 2.99923 0.052601688 0 0
2.94198 1.9473983 0.052601688 0.052601688 0 0
-0.9158484 2.6695452 -0.6694858 -0.36802965 0 0
2.99923 1.9473983 0.052601688 2.99923 0 0
1.9473983 2.99923 1.9473983 1.9473983 0 0
1.9473983 1.9473983 2.99923 1.9473983 0 0
2.99923 2.99923 1.9473983 2.99923 0 0
2.99923 2.99923 0.052601688 0.052601688 0 0
-0.66951454 2.99923 2.6698685 2.99923 0 0
2.669533 -0.66952723 -0.66953605 2.6695316 0 0
-0.66953605 2.6695416 -0.7835516 -0.74174917 0 0
2.99923 1.9473983 1.9473983 -0.9992299 0 0
0.052601688 0.052601688 -0.9992299 -0.9992299 0 0
0.052601688 2.99923 1.9473983 2.99923 0 0
0.052601688 2.99838 0.052601688 -0.9992299 0 0
0.052601688 2.99923 1.9473983 0.6891456 0 0
2.669536 -0.66952556 -0.66953415 2.6694689 0 0
-0.66953605 2.6695309 2.669536 -0.66953605 0 0
2.669536 -0.66953605 -0.66953605 -0.66953605 0 0
-0.9892503 2.6696498 2.6694436 2.99923 0 0
0.052601688 1.9473983 2.99923 -0.81635356 0 0
0.052601688 0.052601688 2.99923 2.99923 0 0
2.99923 -0.9992299 1.9473983 -0.9992299 0 0
1.9473983 -0.9992299 2.99923 -0.9992299 0 0
2.6695502 -0.61719596 1.989394 -0.66954494 0 0
2.669536 -0.66953605 -0.66953605 2.669536 0 0
-0.6695347 2.6695366 -0.66953605 -0.6695221 0 0
2.110861 -0.6691405 1.9473983 -0.6698837 0 0
2.99923 -0.9992299 2.8595145 1.9473983 0 0
2.99923 1.9473983 0.052601688 1.9473983 0 0
2.99923 0.052601688 2.99923 1.9473983 0 0
2.99923 -0.9992299 2.99923 2.99923 0 0
1.9473983 0.052601688 2.99923 0.052601688 0 0
2.99923 2.6695313 2.0219033 2.6694849 0 0
2.0992298 1.0473983 2.0682213 1.0473983 2.0992298 2.0992298
-0.8473983 2.0992298 -0.8473983 -1.8992299 2.0805154 2.0992298
1.0473983 2.0992298 -0.8473983 -0.8473983 -1.8992299 1.0473983
1.769536 -1.569536 1.7695358 1.7695357 -1.569536 1.769536
2.0992298 2.0992298 2.0992298 2.0992298 1.0473983 2.0992298
2.0992298 2.0992298 1.0473983 1.0473983 1.0473983 2.0992298
1.7695317 1.7695324 1.0473983 -1.56346 1.7696879 1.0473983
2.0992298 2.0992298 1.0473983 1.0473983 1.0473983 2.0992298
1.0473983 2.0992298 2.0992298 -0.3970899 1.0473983 1.0473983
2.0992298 2.0992298 2.0992298 1.0473983 1.0473983 2.0992298
1.0473983 2.0992298 1.0473983 2.0992298 1.0473983 2.0992298
1.0473983 2.0992298 2.0992298 1.0473983 2.0992298 2.0992298
2.0992298 1.0473983 2.0992298 1.0473983 2.0992298 2.0934958
1.0473983 1.0473983 1.0473983 1.0473983 2.0992298 1.0473983
1.0473983 2.0992298 1.0473983 2.0992298 2.0992298 2.0992298
2.0996969 1.0473983 1.0473983 1.8859084 2.0992298 2.0992298
2.0992298 -0.8473983 2.0992298 1.0473983 1.0473983 1.0473983
2.0992298 1.0473983 -0.76776886 1.0473983 2.0992298 2.0992298
